{"learner":{"attributes":{"scikit_learn":"{\"_estimator_type\": \"regressor\"}"},"feature_names":["Store","Dept","year","month","week","IsHoliday","Type","Size","Temperature","Fuel_Price","CPI","Unemployment"],"feature_types":["int","int","int","int","int","int","int","int","float","float","float","float"],"gradient_booster":{"model":{"cats":{"enc":[],"feature_segments":[],"sorted_idx":[]},"gbtree_model_param":{"num_parallel_tree":"1","num_trees":"500"},"iteration_indptr":[0,1,2,3,4,5,6,7,8,9,10,11,12,13,14,15,16,17,18,19,20,21,22,23,24,25,26,27,28,29,30,31,32,33,34,35,36,37,38,39,40,41,42,43,44,45,46,47,48,49,50,51,52,53,54,55,56,57,58,59,60,61,62,63,64,65,66,67,68,69,70,71,72,73,74,75,76,77,78,79,80,81,82,83,84,85,86,87,88,89,90,91,92,93,94,95,96,97,98,99,100,101,102,103,104,105,106,107,108,109,110,111,112,113,114,115,116,117,118,119,120,121,122,123,124,125,126,127,128,129,130,131,132,133,134,135,136,137,138,139,140,141,142,143,144,145,146,147,148,149,150,151,152,153,154,155,156,157,158,159,160,161,162,163,164,165,166,167,168,169,170,171,172,173,174,175,176,177,178,179,180,181,182,183,184,185,186,187,188,189,190,191,192,193,194,195,196,197,198,199,200,201,202,203,204,205,206,207,208,209,210,211,212,213,214,215,216,217,218,219,220,221,222,223,224,225,226,227,228,229,230,231,232,233,234,235,236,237,238,239,240,241,242,243,244,245,246,247,248,249,250,251,252,253,254,255,256,257,258,259,260,261,262,263,264,265,266,267,268,269,270,271,272,273,274,275,276,277,278,279,280,281,282,283,284,285,286,287,288,289,290,291,292,293,294,295,296,297,298,299,300,301,302,303,304,305,306,307,308,309,310,311,312,313,314,315,316,317,318,319,320,321,322,323,324,325,326,327,328,329,330,331,332,333,334,335,336,337,338,339,340,341,342,343,344,345,346,347,348,349,350,351,352,353,354,355,356,357,358,359,360,361,362,363,364,365,366,367,368,369,370,371,372,373,374,375,376,377,378,379,380,381,382,383,384,385,386,387,388,389,390,391,392,393,394,395,396,397,398,399,400,401,402,403,404,405,406,407,408,409,410,411,412,413,414,415,416,417,418,419,420,421,422,423,424,425,426,427,428,429,430,431,432,433,434,435,436,437,438,439,440,441,442,443,444,445,446,447,448,449,450,451,452,453,454,455,456,457,458,459,460,461,462,463,464,465,466,467,468,469,470,471,472,473,474,475,476,477,478,479,480,481,482,483,484,485,486,487,488,489,490,491,492,493,494,495,496,497,498,499,500],"tree_info":[0,0,0,0,0,0,0,0,0,0,0,0,0,0,0,0,0,0,0,0,0,0,0,0,0,0,0,0,0,0,0,0,0,0,0,0,0,0,0,0,0,0,0,0,0,0,0,0,0,0,0,0,0,0,0,0,0,0,0,0,0,0,0,0,0,0,0,0,0,0,0,0,0,0,0,0,0,0,0,0,0,0,0,0,0,0,0,0,0,0,0,0,0,0,0,0,0,0,0,0,0,0,0,0,0,0,0,0,0,0,0,0,0,0,0,0,0,0,0,0,0,0,0,0,0,0,0,0,0,0,0,0,0,0,0,0,0,0,0,0,0,0,0,0,0,0,0,0,0,0,0,0,0,0,0,0,0,0,0,0,0,0,0,0,0,0,0,0,0,0,0,0,0,0,0,0,0,0,0,0,0,0,0,0,0,0,0,0,0,0,0,0,0,0,0,0,0,0,0,0,0,0,0,0,0,0,0,0,0,0,0,0,0,0,0,0,0,0,0,0,0,0,0,0,0,0,0,0,0,0,0,0,0,0,0,0,0,0,0,0,0,0,0,0,0,0,0,0,0,0,0,0,0,0,0,0,0,0,0,0,0,0,0,0,0,0,0,0,0,0,0,0,0,0,0,0,0,0,0,0,0,0,0,0,0,0,0,0,0,0,0,0,0,0,0,0,0,0,0,0,0,0,0,0,0,0,0,0,0,0,0,0,0,0,0,0,0,0,0,0,0,0,0,0,0,0,0,0,0,0,0,0,0,0,0,0,0,0,0,0,0,0,0,0,0,0,0,0,0,0,0,0,0,0,0,0,0,0,0,0,0,0,0,0,0,0,0,0,0,0,0,0,0,0,0,0,0,0,0,0,0,0,0,0,0,0,0,0,0,0,0,0,0,0,0,0,0,0,0,0,0,0,0,0,0,0,0,0,0,0,0,0,0,0,0,0,0,0,0,0,0,0,0,0,0,0,0,0,0,0,0,0,0,0,0,0,0,0,0,0,0,0,0,0,0,0,0,0,0,0,0,0,0,0,0,0,0,0,0,0,0,0,0,0,0,0,0,0,0,0,0,0,0,0,0,0,0,0,0,0,0,0,0,0,0,0,0,0,0,0,0,0,0,0,0,0,0,0,0,0],"trees":[{"base_weights":[-3.096123E1,4.064902E3,-4.321564E3,6.40195E3,-1.5578044E3,-2.2917266E3,-7.067081E3,7.860352E3,3.4697979E3,-4.1429907E3,1.3047705E3,1.0644277E4,-3.5400022E3,-8.75941E3,-5.191547E3,1.027086E4,3.6820098E3,7.273568E2,5.275404E3,3.3337395E1,-5.9903887E3,-1.8863616E3,3.5435964E3,9.43869E3,1.7044117E4,-1.4572303E3,-6.04655E3,-1.0327644E4,-7.739435E3,-5.6955293E3,-2.618292E3,9.396674E3,1.4914938E4,-1.8899211E3,6.06399E3,2.9147625E3,-1.537468E3,9.144176E3,3.318896E3,-2.7323157E2,3.1127468E3,-1.0356519E4,-4.2815015E3,-2.2978076E3,-5.9053802E1,2.7775361E3,7.0261416E3,-4.761262E2,9.626411E3,1.8615582E4,9.374946E3,-3.810274E3,8.927979E2,-7.802225E3,-3.8452917E3,-9.719883E3,-1.0933035E4,-7.9516587E3,-5.5299976E3,-5.1081543E3,-6.5309346E3,-2.3832166E3,-3.8720708E3,4.3965952E2,6.439382E2,3.189127E2,7.83376E2,2.7407874E2,-1.4363048E2,4.076645E2,2.3251016E2,8.589916E1,1.9639528E2,-9.065204E1,6.330602E1,3.373475E2,5.0554483E2,1.44626E2,2.759433E2,-3.5310123E1,1.7408976E1,2.2418858E2,-1.0254779E2,-5.3093097E2,-4.535148E2,-3.5795346E2,-1.3507793E2,-1.2903755E2,2.9873142E1,-3.745233E1,5.687016E1,1.0129149E2,2.4240613E2,2.8989816E2,6.5952673E2,5.4477386E2,4.424776E2,5.299145E2,9.9021484E2,6.0751605E2,3.9447275E2,-1.1121697E2,-3.4498056E2,-2.3677912E1,1.7967888E2,-3.506025E2,-5.0232935E2,-3.942766E2,-1.5244159E2,-4.9516608E2,-4.3779623E2,-5.56331E2,-4.937585E2,-4.2272495E2,-3.668536E2,-3.8740347E2,-2.5891943E2,-2.7723697E2,-1.3171729E2,-3.7134467E2,-2.8190616E2,-8.7158165E1,-1.410363E2,-2.2453899E2,-1.4386357E2],"categories":[],"categories_nodes":[],"categories_segments":[],"categories_sizes":[],"default_left":[0,0,0,0,0,0,0,0,0,0,0,0,0,0,0,0,0,0,0,0,0,0,0,0,0,0,0,0,0,0,0,0,0,0,0,0,0,0,0,0,0,0,0,0,0,0,0,0,0,0,0,0,0,0,0,0,0,0,0,0,0,0,0,0,0,0,0,0,0,0,0,0,0,0,0,0,0,0,0,0,0,0,0,0,0,0,0,0,0,0,0,0,0,0,0,0,0,0,0,0,0,0,0,0,0,0,0,0,0,0,0,0,0,0,0,0,0,0,0,0,0,0,0,0,0],"id":0,"left_children":[1,3,5,7,9,11,13,15,17,19,21,23,25,27,29,31,33,35,37,39,41,43,45,47,49,51,53,55,57,59,61,63,65,67,69,71,73,75,77,79,81,83,85,87,89,91,93,-1,95,97,99,101,103,105,107,109,111,113,115,117,119,121,123,-1,-1,-1,-1,-1,-1,-1,-1,-1,-1,-1,-1,-1,-1,-1,-1,-1,-1,-1,-1,-1,-1,-1,-1,-1,-1,-1,-1,-1,-1,-1,-1,-1,-1,-1,-1,-1,-1,-1,-1,-1,-1,-1,-1,-1,-1,-1,-1,-1,-1,-1,-1,-1,-1,-1,-1,-1,-1,-1,-1,-1,-1],"loss_changes":[4.7164534E12,1.8042957E12,7.3044774E11,4.1472387E11,2.9835444E11,1.2169713E12,1.7677078E11,6.523372E11,1.595427E11,1.634459E11,1.36700035E11,5.0932154E10,3.5879898E11,4.672376E10,3.4254619E10,1.6654795E11,3.1456245E11,6.3386882E10,1.4701429E11,6.1361935E9,1.0952019E11,5.931428E9,2.9969252E10,2.0015022E10,1.2386599E10,2.075935E11,1.2050052E11,4.085252E9,8.2572083E9,1.0794566E10,1.2627927E9,7.247993E10,4.163856E10,5.144431E10,4.8983966E10,7.8814904E9,4.8603474E9,1.5017837E10,1.2081594E10,1.5908751E9,4.1801175E9,1.248002E9,4.797409E10,5.277536E9,1.1995589E9,1.4335164E10,1.5227863E10,0E0,5.3077934E9,7.9717663E9,6.0449485E8,9.188403E10,6.9317935E10,3.0664425E10,4.450758E10,8.9030656E8,1.0163323E9,4.910809E9,1.1568374E9,1.4000652E10,7.231275E9,1.0151506E9,4.0007475E8,0E0,0E0,0E0,0E0,0E0,0E0,0E0,0E0,0E0,0E0,0E0,0E0,0E0,0E0,0E0,0E0,0E0,0E0,0E0,0E0,0E0,0E0,0E0,0E0,0E0,0E0,0E0,0E0,0E0,0E0,0E0,0E0,0E0,0E0,0E0,0E0,0E0,0E0,0E0,0E0,0E0,0E0,0E0,0E0,0E0,0E0,0E0,0E0,0E0,0E0,0E0,0E0,0E0,0E0,0E0,0E0,0E0,0E0,0E0,0E0,0E0,0E0],"parents":[2147483647,0,0,1,1,2,2,3,3,4,4,5,5,6,6,7,7,8,8,9,9,10,10,11,11,12,12,13,13,14,14,15,15,16,16,17,17,18,18,19,19,20,20,21,21,22,22,23,23,24,24,25,25,26,26,27,27,28,28,29,29,30,30,31,31,32,32,33,33,34,34,35,35,36,36,37,37,38,38,39,39,40,40,41,41,42,42,43,43,44,44,45,45,46,46,48,48,49,49,50,50,51,51,52,52,53,53,54,54,55,55,56,56,57,57,58,58,59,59,60,60,61,61,62,62],"right_children":[2,4,6,8,10,12,14,16,18,20,22,24,26,28,30,32,34,36,38,40,42,44,46,48,50,52,54,56,58,60,62,64,66,68,70,72,74,76,78,80,82,84,86,88,90,92,94,-1,96,98,100,102,104,106,108,110,112,114,116,118,120,122,124,-1,-1,-1,-1,-1,-1,-1,-1,-1,-1,-1,-1,-1,-1,-1,-1,-1,-1,-1,-1,-1,-1,-1,-1,-1,-1,-1,-1,-1,-1,-1,-1,-1,-1,-1,-1,-1,-1,-1,-1,-1,-1,-1,-1,-1,-1,-1,-1,-1,-1,-1,-1,-1,-1,-1,-1,-1,-1,-1,-1,-1,-1],"split_conditions":[1E0,3.2E1,1.8940007E2,2.1E1,3.7E1,1.1E1,1.7E1,2.1338205E2,2.7E1,3.3E1,1.901715E2,1.1E1,2.4E1,6E0,8.595E0,1.1E1,6.442E0,2.5E1,2.8E1,1.2E1,3.4E1,1.8940007E2,1.1E1,8E0,6.097E1,1.8E1,1.3508374E2,4E0,1.2E1,2E0,1.1E1,8.433E0,2E0,7E0,3E0,6E0,1.2E1,4E0,1.1E1,1.9282607E2,1E0,9.521E0,8.494E0,1.2E1,5.519E1,2.1366554E2,2.1717169E2,-4.761262E2,6.679E1,3.049E0,6.139E1,1.3152791E2,2.3E1,4.3E1,3E1,1.1E1,1.1E1,5.33E1,1.9103033E2,1.1E1,3.1E1,2.837E0,3.13E0,4.3965952E2,6.439382E2,3.189127E2,7.83376E2,2.7407874E2,-1.4363048E2,4.076645E2,2.3251016E2,8.589916E1,1.9639528E2,-9.065204E1,6.330602E1,3.373475E2,5.0554483E2,1.44626E2,2.759433E2,-3.5310123E1,1.7408976E1,2.2418858E2,-1.0254779E2,-5.3093097E2,-4.535148E2,-3.5795346E2,-1.3507793E2,-1.2903755E2,2.9873142E1,-3.745233E1,5.687016E1,1.0129149E2,2.4240613E2,2.8989816E2,6.5952673E2,5.4477386E2,4.424776E2,5.299145E2,9.9021484E2,6.0751605E2,3.9447275E2,-1.1121697E2,-3.4498056E2,-2.3677912E1,1.7967888E2,-3.506025E2,-5.0232935E2,-3.942766E2,-1.5244159E2,-4.9516608E2,-4.3779623E2,-5.56331E2,-4.937585E2,-4.2272495E2,-3.668536E2,-3.8740347E2,-2.5891943E2,-2.7723697E2,-1.3171729E2,-3.7134467E2,-2.8190616E2,-8.7158165E1,-1.410363E2,-2.2453899E2,-1.4386357E2],"split_indices":[6,0,10,0,0,0,0,10,0,0,10,3,0,0,11,3,11,0,0,3,0,10,3,0,8,0,10,0,3,6,3,11,0,0,0,3,3,3,3,10,5,11,11,3,8,10,10,0,8,9,8,10,0,0,0,3,3,8,10,3,0,9,9,0,0,0,0,0,0,0,0,0,0,0,0,0,0,0,0,0,0,0,0,0,0,0,0,0,0,0,0,0,0,0,0,0,0,0,0,0,0,0,0,0,0,0,0,0,0,0,0,0,0,0,0,0,0,0,0,0,0,0,0,0,0],"split_type":[0,0,0,0,0,0,0,0,0,0,0,0,0,0,0,0,0,0,0,0,0,0,0,0,0,0,0,0,0,0,0,0,0,0,0,0,0,0,0,0,0,0,0,0,0,0,0,0,0,0,0,0,0,0,0,0,0,0,0,0,0,0,0,0,0,0,0,0,0,0,0,0,0,0,0,0,0,0,0,0,0,0,0,0,0,0,0,0,0,0,0,0,0,0,0,0,0,0,0,0,0,0,0,0,0,0,0,0,0,0,0,0,0,0,0,0,0,0,0,0,0,0,0,0,0],"sum_hessian":[2.68378E5,1.37305E5,1.31073E5,9.6991E4,4.0314E4,7.536E4,5.5713E4,6.4772E4,3.2219E4,2.1183E4,1.9131E4,6.631E3,6.8729E4,2.9284E4,2.6429E4,4.1074E4,2.3698E4,1.2792E4,1.9427E4,6.497E3,1.4686E4,7.888E3,1.1243E4,5.583E3,1.048E3,3.7539E4,3.119E4,1.1535E4,1.7749E4,2.2099E4,4.33E3,3.4571E4,6.503E3,7.097E3,1.6601E4,6.507E3,6.285E3,6.523E3,1.2904E4,5.91E3,5.87E2,4.129E3,1.0557E4,6.438E3,1.45E3,9.218E3,2.025E3,5.4E1,5.529E3,8.68E2,1.8E2,1.8757E4,1.8782E4,1.7349E4,1.3841E4,5.769E3,5.766E3,1.619E4,1.559E3,1.2982E4,9.117E3,3.65E3,6.8E2,2.9469E4,5.102E3,5.28E2,5.975E3,8.34E2,6.263E3,6.697E3,9.904E3,2.985E3,3.522E3,5.723E3,5.62E2,1.878E3,4.645E3,1.0812E4,2.092E3,3.483E3,2.427E3,4.64E2,1.23E2,3.421E3,7.08E2,3.74E3,6.817E3,5.865E3,5.73E2,9.2E2,5.3E2,6.765E3,2.453E3,1.691E3,3.34E2,2.092E3,3.437E3,1.14E2,7.54E2,5.9E1,1.21E2,1.2396E4,6.361E3,1.2473E4,6.309E3,1.2836E4,4.513E3,2.277E3,1.1564E4,4.835E3,9.34E2,4.862E3,9.04E2,8.894E3,7.296E3,2.09E2,1.35E3,1.1033E4,1.949E3,4.545E3,4.572E3,1.485E3,2.165E3,4.16E2,2.64E2],"tree_param":{"num_deleted":"0","num_feature":"12","num_nodes":"125","size_leaf_vector":"1"}},{"base_weights":[3.807928E1,-3.6334487E3,6.5018306E3,-7.0463506E3,-1.2056168E3,9.165754E3,3.421734E3,-9.819573E3,-6.506984E3,1.860853E3,-2.2323542E3,8.374918E3,1.584789E4,5.8630063E3,2.4305994E3,-9.152596E3,-1.0493609E4,-6.2581113E3,-9.535366E3,-4.6678667E3,7.7338E3,-6.9971436E2,-3.7333267E3,7.729683E3,1.255656E4,1.770909E4,6.5985356E3,3.144296E3,8.611819E3,1.917288E3,6.7944517E3,-9.320472E3,-7.7654077E3,-1.0653706E4,-9.1473E3,-6.808493E3,-3.2893914E3,-8.995032E3,-9.705928E3,-2.6073887E3,-6.9885894E3,5.331729E3,1.0098081E4,3.3330007E3,-1.5416757E3,-5.4279404E3,-2.0735488E3,6.947881E3,1.2370958E4,1.103346E4,1.3484367E4,1.5483667E4,2.6369988E4,7.557746E3,2.1786145E3,2.6019817E3,7.701452E3,7.996124E3,1.3758086E4,3.097123E2,2.468008E3,8.044367E3,5.665981E2,-3.2779602E2,-4.673237E2,-4.1636142E2,-3.3356073E2,-4.2707236E2,-5.3368134E2,-3.3802573E2,-4.7950537E2,-4.534675E2,-3.1399603E2,-2.0897437E2,-1.1932548E2,-3.5841205E2,-4.5240884E2,-5.20545E2,-4.8155865E2,-1.471784E2,8.872831E0,-3.5546796E2,-2.3973283E2,2.4415242E2,4.612691E2,4.4916235E2,9.74692E2,1.2225588E2,5.529812E2,-1.0155441E2,1.2779922E2,-2.9480643E2,-7.223173E1,-1.2178208E2,4.4963165E1,5.350519E2,2.5704593E2,6.524964E2,5.8025385E2,2.8238083E2,5.6484564E2,8.1992413E2,6.626851E2,8.7467786E2,5.794583E2,1.4237775E3,8.39234E2,4.100879E2,-5.380918E0,2.7039035E2,2.6389654E1,9.8786354E1,1.9908243E2,4.394334E2,1.11591324E2,4.763961E2,3.4541257E2,7.866125E2,1.91437E2,1.4214536E2,-6.681276E0,1.822193E2,1.0438375E2,3.276068E2,6.961254E2,-1.7000455E2,1.1617456E2],"categories":[],"categories_nodes":[],"categories_segments":[],"categories_sizes":[],"default_left":[0,0,0,0,0,0,0,0,0,0,0,0,0,0,0,0,0,0,0,0,0,0,0,0,0,0,0,0,0,0,0,0,0,0,0,0,0,0,0,0,0,0,0,0,0,0,0,0,0,0,0,0,0,0,0,0,0,0,0,0,0,0,0,0,0,0,0,0,0,0,0,0,0,0,0,0,0,0,0,0,0,0,0,0,0,0,0,0,0,0,0,0,0,0,0,0,0,0,0,0,0,0,0,0,0,0,0,0,0,0,0,0,0,0,0,0,0,0,0,0,0,0,0,0,0,0,0],"id":1,"left_children":[1,3,5,7,9,11,13,15,17,19,21,23,25,27,29,31,33,35,37,39,41,43,45,47,49,51,53,55,57,59,61,63,65,67,69,71,73,75,77,79,81,83,85,87,89,91,93,95,97,99,101,103,105,107,109,111,113,115,117,119,121,123,125,-1,-1,-1,-1,-1,-1,-1,-1,-1,-1,-1,-1,-1,-1,-1,-1,-1,-1,-1,-1,-1,-1,-1,-1,-1,-1,-1,-1,-1,-1,-1,-1,-1,-1,-1,-1,-1,-1,-1,-1,-1,-1,-1,-1,-1,-1,-1,-1,-1,-1,-1,-1,-1,-1,-1,-1,-1,-1,-1,-1,-1,-1,-1,-1],"loss_changes":[6.377553E12,1.4200713E12,7.987195E11,1.0646297E11,3.1531342E11,2.7565307E11,1.09226164E11,5.0693407E9,4.4863586E10,9.6328345E11,1.7259083E11,1.2580264E11,9.48939E10,9.73841E10,7.1919665E10,1.251541E9,1.0947789E9,9.002785E10,2.8622848E8,5.6864113E10,7.502902E10,1.26056464E11,1.0659647E11,1.4662264E11,8.591311E9,8.798129E10,3.9075635E9,1.6173744E10,2.0371833E10,2.5440846E10,2.630017E10,2.820997E8,3.0979686E8,7.942963E7,5.606646E8,5.5480287E10,6.915326E9,1.0141696E7,2.9884416E7,5.903102E9,1.4311916E9,1.1398922E10,6.95356E10,4.395135E10,6.1600055E10,3.496313E10,2.06186E10,2.3467996E11,2.80363E9,3.2664125E9,2.2749512E9,2.8348449E10,1.8204E10,3.7605335E9,8.886306E8,5.05267E9,4.112429E9,9.553904E9,1.344494E10,8.2376627E9,9.56529E9,2.4550687E10,3.959816E9,0E0,0E0,0E0,0E0,0E0,0E0,0E0,0E0,0E0,0E0,0E0,0E0,0E0,0E0,0E0,0E0,0E0,0E0,0E0,0E0,0E0,0E0,0E0,0E0,0E0,0E0,0E0,0E0,0E0,0E0,0E0,0E0,0E0,0E0,0E0,0E0,0E0,0E0,0E0,0E0,0E0,0E0,0E0,0E0,0E0,0E0,0E0,0E0,0E0,0E0,0E0,0E0,0E0,0E0,0E0,0E0,0E0,0E0,0E0,0E0,0E0,0E0,0E0,0E0],"parents":[2147483647,0,0,1,1,2,2,3,3,4,4,5,5,6,6,7,7,8,8,9,9,10,10,11,11,12,12,13,13,14,14,15,15,16,16,17,17,18,18,19,19,20,20,21,21,22,22,23,23,24,24,25,25,26,26,27,27,28,28,29,29,30,30,31,31,32,32,33,33,34,34,35,35,36,36,37,37,38,38,39,39,40,40,41,41,42,42,43,43,44,44,45,45,46,46,47,47,48,48,49,49,50,50,51,51,52,52,53,53,54,54,55,55,56,56,57,57,58,58,59,59,60,60,61,61,62,62],"right_children":[2,4,6,8,10,12,14,16,18,20,22,24,26,28,30,32,34,36,38,40,42,44,46,48,50,52,54,56,58,60,62,64,66,68,70,72,74,76,78,80,82,84,86,88,90,92,94,96,98,100,102,104,106,108,110,112,114,116,118,120,122,124,126,-1,-1,-1,-1,-1,-1,-1,-1,-1,-1,-1,-1,-1,-1,-1,-1,-1,-1,-1,-1,-1,-1,-1,-1,-1,-1,-1,-1,-1,-1,-1,-1,-1,-1,-1,-1,-1,-1,-1,-1,-1,-1,-1,-1,-1,-1,-1,-1,-1,-1,-1,-1,-1,-1,-1,-1,-1,-1,-1,-1,-1,-1,-1,-1],"split_conditions":[1.84109E5,1.03681E5,2.1E1,6E0,1.1E1,4.7E1,2.8E1,4E0,4.4E1,6.566E0,1.23737E5,8.358E0,5.2E1,2.5E1,4.7E1,4.7E1,4.7E1,3.9E1,6.123E0,9E0,2E0,5.943E0,2.6E1,2E1,4E0,5.1E1,4.735E1,4.7E1,4.7E1,4.81E1,5.2E1,6.697E0,5.519E1,5.825E0,1.2E1,3.991E4,4.3E1,3.049E0,3.139E1,4.7E1,5E1,4.7E1,4.7E1,4.7E1,4.7E1,4.7E1,4.7E1,5E0,5.609E1,2.513E1,1.5E1,4.81E1,5.006E1,3.398E0,7E0,6.6E1,4.217E1,2.011E3,5.2E1,3.2E1,1.96321E5,5.1E1,3.317E1,-3.2779602E2,-4.673237E2,-4.1636142E2,-3.3356073E2,-4.2707236E2,-5.3368134E2,-3.3802573E2,-4.7950537E2,-4.534675E2,-3.1399603E2,-2.0897437E2,-1.1932548E2,-3.5841205E2,-4.5240884E2,-5.20545E2,-4.8155865E2,-1.471784E2,8.872831E0,-3.5546796E2,-2.3973283E2,2.4415242E2,4.612691E2,4.4916235E2,9.74692E2,1.2225588E2,5.529812E2,-1.0155441E2,1.2779922E2,-2.9480643E2,-7.223173E1,-1.2178208E2,4.4963165E1,5.350519E2,2.5704593E2,6.524964E2,5.8025385E2,2.8238083E2,5.6484564E2,8.1992413E2,6.626851E2,8.7467786E2,5.794583E2,1.4237775E3,8.39234E2,4.100879E2,-5.380918E0,2.7039035E2,2.6389654E1,9.8786354E1,1.9908243E2,4.394334E2,1.11591324E2,4.763961E2,3.4541257E2,7.866125E2,1.91437E2,1.4214536E2,-6.681276E0,1.822193E2,1.0438375E2,3.276068E2,6.961254E2,-1.7000455E2,1.1617456E2],"split_indices":[7,7,0,0,0,4,0,0,0,11,7,11,4,0,4,4,4,0,11,0,0,11,0,0,3,4,8,4,4,8,4,11,8,11,3,7,0,9,8,4,4,4,4,4,4,4,4,0,8,8,4,8,8,9,0,8,8,2,4,0,7,4,8,0,0,0,0,0,0,0,0,0,0,0,0,0,0,0,0,0,0,0,0,0,0,0,0,0,0,0,0,0,0,0,0,0,0,0,0,0,0,0,0,0,0,0,0,0,0,0,0,0,0,0,0,0,0,0,0,0,0,0,0,0,0,0,0],"split_type":[0,0,0,0,0,0,0,0,0,0,0,0,0,0,0,0,0,0,0,0,0,0,0,0,0,0,0,0,0,0,0,0,0,0,0,0,0,0,0,0,0,0,0,0,0,0,0,0,0,0,0,0,0,0,0,0,0,0,0,0,0,0,0,0,0,0,0,0,0,0,0,0,0,0,0,0,0,0,0,0,0,0,0,0,0,0,0,0,0,0,0,0,0,0,0,0,0,0,0,0,0,0,0,0,0,0,0,0,0,0,0,0,0,0,0,0,0,0,0,0,0,0,0,0,0,0,0],"sum_hessian":[2.68731E5,1.71383E5,9.7348E4,7.1238E4,1.00145E5,5.2199E4,4.5149E4,1.1595E4,5.9643E4,2.512E4,7.5025E4,4.6678E4,5.521E3,1.3035E4,3.2114E4,5.839E3,5.756E3,5.5118E4,4.525E3,1.1896E4,1.3224E4,3.7122E4,3.7903E4,4.0442E4,6.236E3,4.595E3,9.26E2,6.555E3,6.48E3,2.8736E4,3.378E3,5.201E3,6.38E2,5.135E3,6.21E2,4.6496E4,8.622E3,1.105E3,3.42E3,6.303E3,5.593E3,6.562E3,6.662E3,6.411E3,3.0711E4,1.8753E4,1.915E4,3.4615E4,5.827E3,2.368E3,3.868E3,3.659E3,9.36E2,7.6E2,1.66E2,5.86E3,6.95E2,5.791E3,6.89E2,7.333E3,2.1403E4,2.813E3,5.65E2,5.2E1,5.149E3,4.15E2,2.23E2,5.4E1,5.081E3,1.01E2,5.2E2,8.806E3,3.769E4,4.339E3,4.283E3,3.7E1,1.068E3,3.08E2,3.112E3,5.624E3,6.79E2,5.298E3,2.95E2,5.887E3,6.75E2,5.958E3,7.04E2,5.752E3,6.59E2,2.7435E4,3.276E3,1.678E4,1.973E3,1.7071E4,2.079E3,1.1247E4,2.3368E4,3.076E3,2.751E3,1.12E2,2.256E3,2.76E2,3.592E3,2.41E3,1.249E3,7.65E2,1.71E2,7.01E2,5.9E1,5.5E1,1.11E2,4.033E3,1.827E3,5.79E2,1.16E2,2.4E3,3.391E3,5.74E2,1.15E2,1.091E3,6.242E3,5.226E3,1.6177E4,2.246E3,5.67E2,1.73E2,3.92E2],"tree_param":{"num_deleted":"0","num_feature":"12","num_nodes":"127","size_leaf_vector":"1"}},{"base_weights":[-3.9667006E0,-2.99174E3,2.0013648E4,4.8940312E3,-5.3016333E3,3.2013027E3,3.864143E4,-8.456214E3,9.601178E3,-6.776919E3,6.3463605E2,8.873073E3,-9.607958E3,5.8055473E4,6.7374066E2,-9.883858E3,-1.5076068E3,2.27531E4,7.213359E3,-4.242411E3,-1.0890126E4,3.7134297E4,-3.756838E3,3.4859038E3,2.456989E4,-1.20012295E4,-3.9021094E3,5.259802E4,8.5330914E4,5.5914385E3,-6.9840703E3,-4.6842036E3,-1.0874517E4,-7.541559E2,-5.571332E3,8.079084E3,3.7313867E4,5.815221E3,2.1033594E4,-8.417587E3,3.7082277E4,-8.832952E3,-1.2124194E4,-7.074118E3,4.7313125E4,-3.6945474E2,-9.65976E3,-1.2388723E3,2.441349E4,2.74363E4,9.756818E3,-6.200103E3,-1.2961234E4,-8.880669E2,-9.836568E3,6.677939E4,3.1498334E4,6.4525055E4,9.634724E4,1.916842E4,3.0485896E3,-5.176261E3,-7.900433E2,-3.7988147E2,-8.9105515E1,-5.822802E2,-1.6948677E2,-1.2292267E2,1.8497324E2,-5.210615E2,-1.88834E1,3.360656E2,1.1104027E3,1.4838033E3,2.3141003E3,3.8364178E2,-5.5553296E2,7.500248E2,1.408446E3,-2.9713562E2,-5.69448E2,1.1829641E3,2.2994697E3,-6.2533685E2,-1.6431604E2,-6.524565E2,-4.4294635E2,3.5532678E2,-7.6046136E2,1.9840287E3,4.4657554E3,-2.3017651E2,3.878978E2,-6.580352E2,-1.4900609E2,1.4912218E2,-4.8391635E2,5.7109985E2,1.5188003E3,9.9080853E2,1.9366643E3,6.776139E2,2.9241003E2,-1.4481927E2,-3.9082867E2,-5.827422E2,-7.7295795E2,5.325854E1,-5.1493274E2,-5.438233E2,-4.3606436E2,2.481768E3,5.0784146E3,2.5176277E3,1.4075162E3,5.020603E3,2.9658489E3,6.3345903E3,4.5553037E3,8.665467E2,1.0407762E3,4.646193E1,3.7739835E2,-1.7750728E2,-3.390731E2],"categories":[],"categories_nodes":[],"categories_segments":[],"categories_sizes":[],"default_left":[0,0,0,0,0,0,0,0,0,0,0,0,0,0,0,0,0,0,0,0,0,0,0,0,0,0,0,0,0,0,0,0,0,0,0,0,0,0,0,0,0,0,0,0,0,0,0,0,0,0,0,0,0,0,0,0,0,0,0,0,0,0,0,0,0,0,0,0,0,0,0,0,0,0,0,0,0,0,0,0,0,0,0,0,0,0,0,0,0,0,0,0,0,0,0,0,0,0,0,0,0,0,0,0,0,0,0,0,0,0,0,0,0,0,0,0,0,0,0,0,0,0,0,0,0],"id":2,"left_children":[1,3,5,7,9,11,13,15,17,19,21,23,25,27,29,31,33,35,37,39,41,43,45,47,49,51,53,55,57,59,61,63,65,67,69,71,73,75,77,79,81,83,85,87,89,91,93,95,97,99,101,103,105,107,109,111,113,115,117,119,121,123,-1,-1,-1,-1,-1,-1,-1,-1,-1,-1,-1,-1,-1,-1,-1,-1,-1,-1,-1,-1,-1,-1,-1,-1,-1,-1,-1,-1,-1,-1,-1,-1,-1,-1,-1,-1,-1,-1,-1,-1,-1,-1,-1,-1,-1,-1,-1,-1,-1,-1,-1,-1,-1,-1,-1,-1,-1,-1,-1,-1,-1,-1,-1],"loss_changes":[1.6085028E13,4.2626995E12,1.0938609E13,3.331887E12,1.5851355E12,1.33404E12,1.2213425E13,1.37088926E11,1.230759E12,1.5112413E12,5.7752803E12,1.0760425E12,7.6886114E10,1.6252341E12,2.1123031E11,5.8983318E10,7.211932E9,1.286345E12,6.408919E11,1.547737E13,1.4015372E11,1.7417382E12,6.4307855E11,9.3706414E11,1.376581E11,2.1986017E10,2.9812984E10,2.7315887E12,4.090862E11,1.1782979E11,3.48397E10,1.5515812E10,5.5516725E10,1.5122123E10,9.276145E9,5.7356632E10,2.049717E11,9.475153E11,1.3055518E11,5.990216E11,9.8252725E11,4.2234597E11,1.0415086E11,8.385665E10,1.00307567E12,7.033158E11,2.7416599E11,2.7551826E11,1.3468952E11,2.3329964E11,7.7362463E9,2.9913539E9,1.0839458E10,2.037354E10,5.08928E8,3.251586E12,2.2994957E11,1.1002918E11,1.7202518E11,1.0886676E9,2.7438162E10,4.7210496E9,0E0,0E0,0E0,0E0,0E0,0E0,0E0,0E0,0E0,0E0,0E0,0E0,0E0,0E0,0E0,0E0,0E0,0E0,0E0,0E0,0E0,0E0,0E0,0E0,0E0,0E0,0E0,0E0,0E0,0E0,0E0,0E0,0E0,0E0,0E0,0E0,0E0,0E0,0E0,0E0,0E0,0E0,0E0,0E0,0E0,0E0,0E0,0E0,0E0,0E0,0E0,0E0,0E0,0E0,0E0,0E0,0E0,0E0,0E0,0E0,0E0,0E0,0E0],"parents":[2147483647,0,0,1,1,2,2,3,3,4,4,5,5,6,6,7,7,8,8,9,9,10,10,11,11,12,12,13,13,14,14,15,15,16,16,17,17,18,18,19,19,20,20,21,21,22,22,23,23,24,24,25,25,26,26,27,27,28,28,29,29,30,30,31,31,32,32,33,33,34,34,35,35,36,36,37,37,38,38,39,39,40,40,41,41,42,42,43,43,44,44,45,45,46,46,47,47,48,48,49,49,50,50,51,51,52,52,53,53,54,54,55,55,56,56,57,57,58,58,59,59,60,60,61,61],"right_children":[2,4,6,8,10,12,14,16,18,20,22,24,26,28,30,32,34,36,38,40,42,44,46,48,50,52,54,56,58,60,62,64,66,68,70,72,74,76,78,80,82,84,86,88,90,92,94,96,98,100,102,104,106,108,110,112,114,116,118,120,122,124,-1,-1,-1,-1,-1,-1,-1,-1,-1,-1,-1,-1,-1,-1,-1,-1,-1,-1,-1,-1,-1,-1,-1,-1,-1,-1,-1,-1,-1,-1,-1,-1,-1,-1,-1,-1,-1,-1,-1,-1,-1,-1,-1,-1,-1,-1,-1,-1,-1,-1,-1,-1,-1,-1,-1,-1,-1,-1,-1,-1,-1,-1,-1],"split_conditions":[9E1,1.4E1,1.51315E5,9.3188E4,7.2E1,9.6E1,9.6E1,5.7197E4,3E0,4.1E1,7.4E1,2E0,2E0,9.5E1,9.8E1,3E0,1.2E1,2E0,1.3E1,3.8E1,5E1,7.0713E4,8.3E1,9.5E1,4.4E1,1E0,9.8E1,9.3E1,2.00898E5,5E0,9.9E1,2E0,1.3E1,9E0,1.3E1,1.2E1,1.84109E5,1.2E1,1.84109E5,2.7E1,1.19557E5,4.6E1,6.5E1,1.7E1,1.1E1,1.84109E5,8.7E1,9.3E1,9.3188E4,3.9E1,9.3E1,9.7E1,9.8E1,4.4E1,3.9E1,9.2E1,5E0,2E0,2.02505E5,9.7E1,2.0237926E2,2.1E1,-7.900433E2,-3.7988147E2,-8.9105515E1,-5.822802E2,-1.6948677E2,-1.2292267E2,1.8497324E2,-5.210615E2,-1.88834E1,3.360656E2,1.1104027E3,1.4838033E3,2.3141003E3,3.8364178E2,-5.5553296E2,7.500248E2,1.408446E3,-2.9713562E2,-5.69448E2,1.1829641E3,2.2994697E3,-6.2533685E2,-1.6431604E2,-6.524565E2,-4.4294635E2,3.5532678E2,-7.6046136E2,1.9840287E3,4.4657554E3,-2.3017651E2,3.878978E2,-6.580352E2,-1.4900609E2,1.4912218E2,-4.8391635E2,5.7109985E2,1.5188003E3,9.9080853E2,1.9366643E3,6.776139E2,2.9241003E2,-1.4481927E2,-3.9082867E2,-5.827422E2,-7.7295795E2,5.325854E1,-5.1493274E2,-5.438233E2,-4.3606436E2,2.481768E3,5.0784146E3,2.5176277E3,1.4075162E3,5.020603E3,2.9658489E3,6.3345903E3,4.5553037E3,8.665467E2,1.0407762E3,4.646193E1,3.7739835E2,-1.7750728E2,-3.390731E2],"split_indices":[1,1,7,7,1,1,1,7,1,1,1,6,6,1,1,1,1,1,1,1,1,7,1,1,0,6,1,1,7,0,1,1,1,1,1,3,7,1,7,1,7,1,1,0,3,7,1,1,7,0,1,1,1,0,0,1,0,0,7,1,10,0,0,0,0,0,0,0,0,0,0,0,0,0,0,0,0,0,0,0,0,0,0,0,0,0,0,0,0,0,0,0,0,0,0,0,0,0,0,0,0,0,0,0,0,0,0,0,0,0,0,0,0,0,0,0,0,0,0,0,0,0,0,0,0],"split_type":[0,0,0,0,0,0,0,0,0,0,0,0,0,0,0,0,0,0,0,0,0,0,0,0,0,0,0,0,0,0,0,0,0,0,0,0,0,0,0,0,0,0,0,0,0,0,0,0,0,0,0,0,0,0,0,0,0,0,0,0,0,0,0,0,0,0,0,0,0,0,0,0,0,0,0,0,0,0,0,0,0,0,0,0,0,0,0,0,0,0,0,0,0,0,0,0,0,0,0,0,0,0,0,0,0,0,0,0,0,0,0,0,0,0,0,0,0,0,0,0,0,0,0,0,0],"sum_hessian":[2.68941E5,2.34014E5,3.4927E4,5.3017E4,1.80997E5,1.8359E4,1.6568E4,1.382E4,3.9197E4,1.44969E5,3.6028E4,1.2725E4,5.634E3,1.0962E4,5.606E3,1.1464E4,2.356E3,6.021E3,3.3176E4,8.97E4,5.5269E4,3.868E3,3.216E4,9.475E3,3.25E3,3.968E3,1.666E3,9.138E3,1.824E3,3.414E3,2.192E3,1.836E3,9.628E3,1.989E3,3.67E2,3E3,3.021E3,3.013E4,3.046E3,8.147E4,8.23E3,2.0728E4,3.4541E4,7.24E2,3.144E3,2.0435E4,1.1725E4,7.731E3,1.744E3,2.722E3,5.28E2,5.65E2,3.403E3,1.106E3,5.6E2,5.463E3,3.675E3,6.35E2,1.189E3,5.37E2,2.877E3,1.821E3,3.71E2,9.15E2,9.21E2,8.728E3,9E2,1.439E3,5.5E2,1.89E2,1.78E2,2.739E3,2.61E2,1.635E3,1.386E3,2.7151E4,2.979E3,1.653E3,1.393E3,4.4451E4,3.7019E4,3.285E3,4.945E3,1.2468E4,8.26E3,2.6913E4,7.628E3,2.64E2,4.6E2,2.663E3,4.81E2,1.3436E4,6.999E3,7.692E3,4.033E3,5.154E3,2.577E3,5.5E2,1.194E3,1.628E3,1.094E3,2.66E2,2.62E2,1.87E2,3.78E2,2.24E3,1.163E3,9.17E2,1.89E2,2.83E2,2.77E2,3.662E3,1.801E3,5.51E2,3.124E3,7.7E1,5.58E2,1.7E2,1.019E3,2.62E2,2.75E2,1.957E3,9.2E2,9.07E2,9.14E2],"tree_param":{"num_deleted":"0","num_feature":"12","num_nodes":"125","size_leaf_vector":"1"}},{"base_weights":[-2.164099E1,-2.872156E3,1.9166523E4,4.6602427E3,-5.072337E3,3.142628E3,3.7044547E4,-6.7467646E3,9.669654E3,-6.459301E3,5.2147046E2,8.456606E3,-9.117744E3,5.552062E4,7.215321E2,-9.400385E3,-2.7586057E2,2.2255064E4,7.385257E3,-4.078545E3,-1.0344226E4,3.4949152E4,-3.5701863E3,3.2846316E3,2.3257424E4,-1.1366636E4,-3.8462659E3,5.0438098E4,8.1261234E4,5.34277E3,-6.556266E3,-4.4802217E3,-1.0339396E4,4.3769243E3,-1.7990354E3,8.0275024E3,3.674052E4,6.0099927E3,2.1060621E4,-8.0142954E3,3.5102477E4,-7.9217417E3,-1.1381492E4,-9.823186E3,4.407056E4,-3.548461E2,-9.163026E3,-1.0926361E3,2.3003006E4,1.7520062E4,2.7483678E4,-5.7780454E3,-1.2280803E4,-9.134635E2,-9.422095E3,6.4061293E4,3.004891E4,6.1615258E4,9.170814E4,2.4633848E3,1.012338E4,-4.8398286E3,-7.5152655E2,-3.640068E2,-8.546902E1,-5.547546E2,-1.5839465E2,5.30495E2,1.877638E1,1.4289946E2,-1.3172447E2,3.2714346E2,1.1623275E3,2.7598865E3,1.6156678E3,3.9313086E2,-5.284468E2,7.745509E2,1.3387401E3,-2.4668553E2,-5.074681E2,1.1167507E3,2.1831382E3,-5.939844E2,2.0193996E2,-6.056377E2,-4.1920947E2,8.05357E1,-7.218334E2,1.8430599E3,4.2025645E3,-2.179847E2,3.6749533E2,-6.246243E2,-1.4378357E2,7.610949E2,-1.6141217E2,5.349701E2,1.4301162E3,1.8093479E3,7.7728455E2,1.6402551E3,7.1288824E2,-1.2862036E2,-3.7061127E2,-5.5172595E2,-7.3350824E2,-2.3251436E2,1.4232538E2,-5.336194E2,-3.965554E2,2.3731658E3,4.8423184E3,1.1138618E3,1.7074124E3,4.7619795E3,2.7854182E3,6.000301E3,4.3282866E3,-3.408222E0,4.8748038E2,3.3715308E2,6.9506305E2,-3.4441626E2,-1.8769852E2],"categories":[],"categories_nodes":[],"categories_segments":[],"categories_sizes":[],"default_left":[0,0,0,0,0,0,0,0,0,0,0,0,0,0,0,0,0,0,0,0,0,0,0,0,0,0,0,0,0,0,0,0,0,0,0,0,0,0,0,0,0,0,0,0,0,0,0,0,0,0,0,0,0,0,0,0,0,0,0,0,0,0,0,0,0,0,0,0,0,0,0,0,0,0,0,0,0,0,0,0,0,0,0,0,0,0,0,0,0,0,0,0,0,0,0,0,0,0,0,0,0,0,0,0,0,0,0,0,0,0,0,0,0,0,0,0,0,0,0,0,0,0,0,0,0],"id":3,"left_children":[1,3,5,7,9,11,13,15,17,19,21,23,25,27,29,31,33,35,37,39,41,43,45,47,49,51,53,55,57,59,61,63,65,67,69,71,73,75,77,79,81,83,85,87,89,91,93,95,97,99,101,103,105,107,109,111,113,115,117,119,121,123,-1,-1,-1,-1,-1,-1,-1,-1,-1,-1,-1,-1,-1,-1,-1,-1,-1,-1,-1,-1,-1,-1,-1,-1,-1,-1,-1,-1,-1,-1,-1,-1,-1,-1,-1,-1,-1,-1,-1,-1,-1,-1,-1,-1,-1,-1,-1,-1,-1,-1,-1,-1,-1,-1,-1,-1,-1,-1,-1,-1,-1,-1,-1],"loss_changes":[1.4685205E13,3.8740644E12,9.948119E12,3.0198163E12,1.4036286E12,1.1933301E12,1.101515E13,2.7690946E11,1.0554709E12,1.3407869E12,5.0638356E12,9.779959E11,6.5593246E10,1.4171882E12,1.8622492E11,5.276808E10,3.326049E10,1.1620238E12,5.843675E11,1.3861987E13,1.3827677E11,1.560074E12,5.777762E11,8.174612E11,7.95008E10,1.972378E10,2.7108217E10,2.521865E12,3.5920963E11,4.6578483E10,3.117106E10,1.4221365E10,5.198781E10,2.8862775E10,1.3766971E10,6.4110264E10,2.2567164E11,8.676105E11,8.9746964E10,5.3719125E11,8.953413E11,7.820913E11,8.4375765E10,3.4190561E10,9.0977966E11,6.2959505E11,2.4546463E11,2.7014711E11,1.18069264E11,5.1030098E10,1.33197726E11,2.8447662E9,9.686745E9,1.5313662E10,9.384018E8,2.9574478E12,1.1493625E11,1.1647425E11,1.5416584E11,3.902231E10,1.6109781E10,3.9439606E9,0E0,0E0,0E0,0E0,0E0,0E0,0E0,0E0,0E0,0E0,0E0,0E0,0E0,0E0,0E0,0E0,0E0,0E0,0E0,0E0,0E0,0E0,0E0,0E0,0E0,0E0,0E0,0E0,0E0,0E0,0E0,0E0,0E0,0E0,0E0,0E0,0E0,0E0,0E0,0E0,0E0,0E0,0E0,0E0,0E0,0E0,0E0,0E0,0E0,0E0,0E0,0E0,0E0,0E0,0E0,0E0,0E0,0E0,0E0,0E0,0E0,0E0,0E0],"parents":[2147483647,0,0,1,1,2,2,3,3,4,4,5,5,6,6,7,7,8,8,9,9,10,10,11,11,12,12,13,13,14,14,15,15,16,16,17,17,18,18,19,19,20,20,21,21,22,22,23,23,24,24,25,25,26,26,27,27,28,28,29,29,30,30,31,31,32,32,33,33,34,34,35,35,36,36,37,37,38,38,39,39,40,40,41,41,42,42,43,43,44,44,45,45,46,46,47,47,48,48,49,49,50,50,51,51,52,52,53,53,54,54,55,55,56,56,57,57,58,58,59,59,60,60,61,61],"right_children":[2,4,6,8,10,12,14,16,18,20,22,24,26,28,30,32,34,36,38,40,42,44,46,48,50,52,54,56,58,60,62,64,66,68,70,72,74,76,78,80,82,84,86,88,90,92,94,96,98,100,102,104,106,108,110,112,114,116,118,120,122,124,-1,-1,-1,-1,-1,-1,-1,-1,-1,-1,-1,-1,-1,-1,-1,-1,-1,-1,-1,-1,-1,-1,-1,-1,-1,-1,-1,-1,-1,-1,-1,-1,-1,-1,-1,-1,-1,-1,-1,-1,-1,-1,-1,-1,-1,-1,-1,-1,-1,-1,-1,-1,-1,-1,-1,-1,-1,-1,-1,-1,-1,-1,-1],"split_conditions":[9E1,1.4E1,1.51315E5,1.03681E5,7.2E1,9.6E1,9.6E1,5.7197E4,3E0,4.1E1,7.4E1,2E0,2E0,9.5E1,9.8E1,3E0,1.3152791E2,2E0,1.3E1,3.8E1,4.7E1,5.7197E4,8.3E1,9.5E1,8.211E0,1E0,9.8E1,9.3E1,2.00898E5,2.0435716E2,9.9E1,2E0,1.3E1,6E0,3E0,1.2E1,1.3152791E2,1.2E1,1.84109E5,2.4E1,1.19557E5,4.6E1,6.5E1,3.969E4,1.1E1,1.84109E5,8.7E1,1E0,9.3188E4,3.991E4,1.2187E1,9.7E1,9.8E1,1.3152791E2,8.471E0,9.2E1,2.00898E5,1.52513E5,2.02505E5,2.05863E5,7.603E0,2.00898E5,-7.5152655E2,-3.640068E2,-8.546902E1,-5.547546E2,-1.5839465E2,5.30495E2,1.877638E1,1.4289946E2,-1.3172447E2,3.2714346E2,1.1623275E3,2.7598865E3,1.6156678E3,3.9313086E2,-5.284468E2,7.745509E2,1.3387401E3,-2.4668553E2,-5.074681E2,1.1167507E3,2.1831382E3,-5.939844E2,2.0193996E2,-6.056377E2,-4.1920947E2,8.05357E1,-7.218334E2,1.8430599E3,4.2025645E3,-2.179847E2,3.6749533E2,-6.246243E2,-1.4378357E2,7.610949E2,-1.6141217E2,5.349701E2,1.4301162E3,1.8093479E3,7.7728455E2,1.6402551E3,7.1288824E2,-1.2862036E2,-3.7061127E2,-5.5172595E2,-7.3350824E2,-2.3251436E2,1.4232538E2,-5.336194E2,-3.965554E2,2.3731658E3,4.8423184E3,1.1138618E3,1.7074124E3,4.7619795E3,2.7854182E3,6.000301E3,4.3282866E3,-3.408222E0,4.8748038E2,3.3715308E2,6.9506305E2,-3.4441626E2,-1.8769852E2],"split_indices":[1,1,7,7,1,1,1,7,1,1,1,6,6,1,1,1,10,1,1,1,1,7,1,1,11,6,1,1,7,10,1,1,1,1,1,3,10,1,7,1,7,1,1,7,3,7,1,6,7,7,11,1,1,10,11,1,7,7,7,7,11,7,0,0,0,0,0,0,0,0,0,0,0,0,0,0,0,0,0,0,0,0,0,0,0,0,0,0,0,0,0,0,0,0,0,0,0,0,0,0,0,0,0,0,0,0,0,0,0,0,0,0,0,0,0,0,0,0,0,0,0,0,0,0,0],"split_type":[0,0,0,0,0,0,0,0,0,0,0,0,0,0,0,0,0,0,0,0,0,0,0,0,0,0,0,0,0,0,0,0,0,0,0,0,0,0,0,0,0,0,0,0,0,0,0,0,0,0,0,0,0,0,0,0,0,0,0,0,0,0,0,0,0,0,0,0,0,0,0,0,0,0,0,0,0,0,0,0,0,0,0,0,0,0,0,0,0,0,0,0,0,0,0,0,0,0,0,0,0,0,0,0,0,0,0,0,0,0,0,0,0,0,0,0,0,0,0,0,0,0,0,0,0],"sum_hessian":[2.68484E5,2.33759E5,3.4725E4,5.2844E4,1.80915E5,1.8313E4,1.6412E4,1.6125E4,3.6719E4,1.4497E5,3.5945E4,1.2776E4,5.537E3,1.0878E4,5.534E3,1.1435E4,4.69E3,5.639E3,3.108E4,8.9888E4,5.5082E4,3.817E3,3.2128E4,9.469E3,3.307E3,3.88E3,1.657E3,9.088E3,1.79E3,3.385E3,2.149E3,1.834E3,9.601E3,1.156E3,3.534E3,2.846E3,2.793E3,2.8242E4,2.838E3,8.1684E4,8.204E3,1.6518E4,3.8564E4,6.46E2,3.171E3,2.0401E4,1.1727E4,7.75E3,1.719E3,1.406E3,1.901E3,5.47E2,3.333E3,1.087E3,5.7E2,5.446E3,3.642E3,6.25E2,1.165E3,2.114E3,1.271E3,1.789E3,3.6E2,9.11E2,9.23E2,8.685E3,9.16E2,4.51E2,7.05E2,5.37E2,2.997E3,2.595E3,2.51E2,5.37E2,2.256E3,2.5404E4,2.838E3,1.44E3,1.398E3,3.344E4,4.8244E4,3.295E3,4.909E3,1.2411E4,4.107E3,3.0997E4,7.567E3,1.86E2,4.6E2,2.689E3,4.82E2,1.3424E4,6.977E3,7.666E3,4.061E3,8.96E2,6.854E3,5.39E2,1.18E3,1.32E2,1.274E3,1.354E3,5.47E2,1.86E2,3.61E2,2.196E3,1.137E3,5.45E2,5.42E2,3.05E2,2.65E2,3.618E3,1.828E3,1.261E3,2.381E3,9E1,5.35E2,1.74E2,9.91E2,1.57E3,5.44E2,6.73E2,5.98E2,6.17E2,1.172E3],"tree_param":{"num_deleted":"0","num_feature":"12","num_nodes":"125","size_leaf_vector":"1"}},{"base_weights":[-1.0340679E1,-3.2576536E3,5.7093804E3,-6.370327E3,-1.0491471E3,5.118642E3,1.0721686E4,-8.730535E3,-5.9114956E3,-1.5178857E3,2.8273936E3,1.0260538E4,4.7721274E3,1.2130521E4,3.6216511E3,-9.285752E3,-8.1786973E3,-7.566861E3,-5.65246E3,-1.9925027E3,-1.8105826E2,2.118631E3,1.4175976E4,4.171017E3,1.1298452E4,1.865029E3,5.242705E3,1.0191666E4,1.9923637E4,6.8897856E3,1.7463239E3,-9.381652E3,-8.49192E3,-8.352602E3,-6.778095E3,-9.0227705E3,-6.0494497E3,-5.4561E3,-7.64607E3,1.2391776E3,-2.4260315E3,-2.8523037E3,7.1627466E2,3.1837922E3,-2.8154966E3,8.349044E3,2.3758193E4,3.733873E3,4.7678366E2,8.758634E3,1.1886014E4,3.053899E3,6.941446E2,1.0285395E4,4.253968E3,1.3562649E4,9.071145E3,1.8912475E4,1.6371111E3,-1.809316E1,7.597285E3,-3.031332E3,2.324446E3,-3.160401E2,-4.70315E2,-4.473622E2,-3.5895547E2,-3.878003E2,-4.2786642E2,-3.078132E2,-3.5842355E2,-4.638872E2,-3.8910062E2,-2.34171E2,-3.4408212E2,-2.6203333E2,-3.4506845E2,-4.0270502E2,-3.7050558E2,-1.706599E2,1.4757777E2,-2.2005034E2,-6.3023968E1,-1.5023875E2,-9.117419E1,-4.820907E1,4.28034E2,9.229734E1,4.142582E2,-1.8747829E2,2.872803E2,2.7704388E2,1.1227958E3,9.538408E2,1.8279006E3,1.5689531E2,2.5212096E2,4.9208282E2,3.3339252E2,7.575171E2,5.68311E2,1.9424614E2,1.1606659E2,3.7420502E0,8.7180046E1,4.875566E2,6.48047E2,2.80275E2,7.953496E1,7.27061E2,3.379298E2,3.0461087E2,5.277782E2,1.0022464E3,4.918339E2,4.985506E2,2.0076486E2,-1.32209E2,-1.676996E2,2.727097E2,5.180055E1],"categories":[],"categories_nodes":[],"categories_segments":[],"categories_sizes":[],"default_left":[0,0,0,0,0,0,0,0,0,0,0,0,0,0,0,0,0,0,0,0,0,0,0,0,0,0,0,0,0,0,0,0,0,0,0,0,0,0,0,0,0,0,0,0,0,0,0,0,0,0,0,0,0,0,0,0,0,0,0,0,0,0,0,0,0,0,0,0,0,0,0,0,0,0,0,0,0,0,0,0,0,0,0,0,0,0,0,0,0,0,0,0,0,0,0,0,0,0,0,0,0,0,0,0,0,0,0,0,0,0,0,0,0,0,0,0,0,0,0,0,0],"id":4,"left_children":[1,3,5,7,9,11,13,15,17,19,21,23,25,27,29,31,33,35,37,39,41,43,45,47,49,51,53,55,57,59,61,63,65,67,69,71,73,75,77,79,81,83,85,87,89,91,93,95,-1,97,99,101,103,105,107,109,111,113,-1,-1,115,117,119,-1,-1,-1,-1,-1,-1,-1,-1,-1,-1,-1,-1,-1,-1,-1,-1,-1,-1,-1,-1,-1,-1,-1,-1,-1,-1,-1,-1,-1,-1,-1,-1,-1,-1,-1,-1,-1,-1,-1,-1,-1,-1,-1,-1,-1,-1,-1,-1,-1,-1,-1,-1,-1,-1,-1,-1,-1,-1],"loss_changes":[4.990592E12,1.1781691E12,2.880294E11,7.695447E10,1.8218092E11,1.5502279E11,1.02537626E11,3.4323825E9,2.5474892E10,5.674903E10,8.694887E10,3.4656748E10,1.1155315E11,1.2901207E11,1.0404012E10,3.189637E8,1.3320192E9,1.771225E10,2.0100547E10,9.248275E10,5.618027E10,5.3523755E10,3.5185558E10,1.8285558E9,6.847922E9,1.581654E10,3.499018E11,2.5714164E10,2.1151285E10,3.1824916E9,3.0005092E9,2.9730406E8,2.8411904E8,5.3169357E8,9.170944E7,1.1911496E9,4.44031E9,1.4546502E10,3.5473E8,6.2222496E10,1.33965545E11,9.162711E8,2.312871E11,5.7131737E10,1.4494276E10,1.55601E10,1.3304906E10,5.568635E8,0E0,1.9111854E9,6.202163E9,3.4190828E9,3.7222897E9,1.625686E10,2.112319E11,1.12215E10,2.2678962E10,1.5969026E10,0E0,0E0,4.7396946E9,1.374464E6,3.888912E9,0E0,0E0,0E0,0E0,0E0,0E0,0E0,0E0,0E0,0E0,0E0,0E0,0E0,0E0,0E0,0E0,0E0,0E0,0E0,0E0,0E0,0E0,0E0,0E0,0E0,0E0,0E0,0E0,0E0,0E0,0E0,0E0,0E0,0E0,0E0,0E0,0E0,0E0,0E0,0E0,0E0,0E0,0E0,0E0,0E0,0E0,0E0,0E0,0E0,0E0,0E0,0E0,0E0,0E0,0E0,0E0,0E0,0E0],"parents":[2147483647,0,0,1,1,2,2,3,3,4,4,5,5,6,6,7,7,8,8,9,9,10,10,11,11,12,12,13,13,14,14,15,15,16,16,17,17,18,18,19,19,20,20,21,21,22,22,23,23,24,24,25,25,26,26,27,27,28,28,29,29,30,30,31,31,32,32,33,33,34,34,35,35,36,36,37,37,38,38,39,39,40,40,41,41,42,42,43,43,44,44,45,45,46,46,47,47,49,49,50,50,51,51,52,52,53,53,54,54,55,55,56,56,57,57,60,60,61,61,62,62],"right_children":[2,4,6,8,10,12,14,16,18,20,22,24,26,28,30,32,34,36,38,40,42,44,46,48,50,52,54,56,58,60,62,64,66,68,70,72,74,76,78,80,82,84,86,88,90,92,94,96,-1,98,100,102,104,106,108,110,112,114,-1,-1,116,118,120,-1,-1,-1,-1,-1,-1,-1,-1,-1,-1,-1,-1,-1,-1,-1,-1,-1,-1,-1,-1,-1,-1,-1,-1,-1,-1,-1,-1,-1,-1,-1,-1,-1,-1,-1,-1,-1,-1,-1,-1,-1,-1,-1,-1,-1,-1,-1,-1,-1,-1,-1,-1,-1,-1,-1,-1,-1,-1],"split_conditions":[1.84109E5,1.03681E5,4.7E1,3.969E4,4.7E1,6.529E0,5.2E1,3.7392E4,1E0,8.744E0,5.44E1,2.03007E5,2.00898E5,5.1E1,7.503E0,4.7E1,4.7E1,3.991E4,1.2187E1,1.18221E5,1E0,5.2E1,8.177E0,4E0,6E0,1.96321E5,2.02505E5,1.2E1,2.19622E5,2.00898E5,2.831E0,5.825E0,5.456E1,1.1E1,2.899E0,9.521E0,2.806E0,9.3638E4,3.153E0,1.12238E5,1.26512E5,2.012E3,1.23737E5,5.1E1,4.735E1,3.704E0,5.1E1,1E1,4.7678366E2,2.06302E5,3E0,8.316E0,3.415E0,8.743E0,8.2E0,3.501E0,4.9E1,8.743E0,1.6371111E3,-1.809316E1,4.464E1,2.00898E5,2.02505E5,-3.160401E2,-4.70315E2,-4.473622E2,-3.5895547E2,-3.878003E2,-4.2786642E2,-3.078132E2,-3.5842355E2,-4.638872E2,-3.8910062E2,-2.34171E2,-3.4408212E2,-2.6203333E2,-3.4506845E2,-4.0270502E2,-3.7050558E2,-1.706599E2,1.4757777E2,-2.2005034E2,-6.3023968E1,-1.5023875E2,-9.117419E1,-4.820907E1,4.28034E2,9.229734E1,4.142582E2,-1.8747829E2,2.872803E2,2.7704388E2,1.1227958E3,9.538408E2,1.8279006E3,1.5689531E2,2.5212096E2,4.9208282E2,3.3339252E2,7.575171E2,5.68311E2,1.9424614E2,1.1606659E2,3.7420502E0,8.7180046E1,4.875566E2,6.48047E2,2.80275E2,7.953496E1,7.27061E2,3.379298E2,3.0461087E2,5.277782E2,1.0022464E3,4.918339E2,4.985506E2,2.0076486E2,-1.32209E2,-1.676996E2,2.727097E2,5.180055E1],"split_indices":[7,7,4,7,4,11,4,7,6,11,8,7,7,4,11,4,4,7,11,7,6,4,11,3,4,7,7,3,7,7,9,11,8,4,9,11,9,7,9,7,7,2,7,4,8,9,4,4,0,7,3,11,9,11,11,9,4,11,0,0,8,7,7,0,0,0,0,0,0,0,0,0,0,0,0,0,0,0,0,0,0,0,0,0,0,0,0,0,0,0,0,0,0,0,0,0,0,0,0,0,0,0,0,0,0,0,0,0,0,0,0,0,0,0,0,0,0,0,0,0,0],"split_type":[0,0,0,0,0,0,0,0,0,0,0,0,0,0,0,0,0,0,0,0,0,0,0,0,0,0,0,0,0,0,0,0,0,0,0,0,0,0,0,0,0,0,0,0,0,0,0,0,0,0,0,0,0,0,0,0,0,0,0,0,0,0,0,0,0,0,0,0,0,0,0,0,0,0,0,0,0,0,0,0,0,0,0,0,0,0,0,0,0,0,0,0,0,0,0,0,0,0,0,0,0,0,0,0,0,0,0,0,0,0,0,0,0,0,0,0,0,0,0,0,0],"sum_hessian":[2.68688E5,1.71386E5,9.7302E4,7.1131E4,1.00255E5,8.7046E4,1.0256E4,1.1573E4,5.9558E4,8.9441E4,1.0814E4,5.493E3,8.1553E4,8.557E3,1.699E3,5.757E3,5.816E3,8.053E3,5.1505E4,6.6006E4,2.3435E4,1.018E4,6.34E2,8.01E2,4.692E3,1.1363E4,7.019E4,6.855E3,1.702E3,6.18E2,1.081E3,5.122E3,6.35E2,5.167E3,6.49E2,4.106E3,3.947E3,4.6892E4,4.613E3,7.807E3,5.8199E4,5.892E3,1.7543E4,8.373E3,1.807E3,3.96E2,2.38E2,7.43E2,5.8E1,8.86E2,3.806E3,5.637E3,5.726E3,1.1504E4,5.8686E4,1.706E3,5.149E3,1.581E3,1.21E2,5.5E1,5.63E2,1.16E2,9.65E2,4.4E1,5.078E3,4.65E2,1.7E2,1.335E3,3.832E3,2.6E2,3.89E2,3.398E3,7.08E2,1.498E3,2.449E3,4.0815E4,6.077E3,1.672E3,2.941E3,2.1E3,5.707E3,2.1598E4,3.6601E4,5.129E3,7.63E2,1.4449E4,3.094E3,6.635E3,1.738E3,1.63E3,1.77E2,3.32E2,6.4E1,1.77E2,6.1E1,5.14E2,2.29E2,5.8E2,3.06E2,5.17E2,3.289E3,2.638E3,2.999E3,3.602E3,2.124E3,9.595E3,1.909E3,3.8929E4,1.9757E4,1.49E3,2.16E2,1.715E3,3.434E3,1.404E3,1.77E2,3.37E2,2.26E2,5.9E1,5.7E1,2.8E2,6.85E2],"tree_param":{"num_deleted":"0","num_feature":"12","num_nodes":"121","size_leaf_vector":"1"}},{"base_weights":[-1.0624942E1,-2.729392E3,1.8205875E4,5.667943E3,-4.4996626E3,3.127807E3,3.50179E4,-6.992728E3,1.0090869E4,-5.671437E3,5.987017E2,8.1679062E3,-8.488123E3,5.2656453E4,3.854582E2,-8.382143E3,-2.9144327E2,2.0512004E4,7.501293E3,-3.4011953E3,-9.868092E3,3.3221906E4,-3.3127493E3,3.1743152E3,2.263824E4,-4.8441157E3,-1.1664612E4,4.7786098E4,7.721523E4,4.836996E3,-6.4723057E3,-5.5969663E3,-1.0406464E4,-2.0203223E3,6.3955024E3,7.1763213E3,3.3740117E4,5.9725005E3,2.0643832E4,-6.6060444E3,3.3321074E4,-7.5111177E3,-1.0872994E4,-6.1510645E3,4.270928E4,-2.674294E2,-8.676569E3,-9.4844165E2,2.1913857E4,2.7612262E4,1.763147E4,-8.825786E3,-3.1104233E3,-1.0316106E4,-6.927795E2,6.0739418E4,2.814633E4,5.9612098E4,8.679652E4,1.4992344E4,4.2683394E3,-4.815391E3,-7.261192E2,-3.3706064E2,-1.0819048E2,-2.7429684E2,-5.8883124E2,9.1566154E1,-1.6507011E2,1.9407675E0,5.924165E2,2.9348352E2,1.215479E3,1.3412524E3,2.110137E3,9.015627E1,5.082884E2,-1.7852472E2,1.201709E3,-2.1363003E1,-4.1667422E2,1.3506967E3,2.4494485E3,-5.661435E2,1.9685295E2,-5.7831946E2,-4.0055682E2,2.9088156E2,-6.720277E2,1.8023105E3,5.040402E3,-1.96799E2,3.3733795E2,-5.9323395E2,-1.3602429E2,1.5988313E2,-4.613303E2,1.9944174E2,1.266732E3,9.78465E2,2.1502515E3,4.9850177E2,1.6312E3,-5.524015E2,-3.315796E2,-4.7148796E1,-3.705411E2,-2.5842493E2,-5.3442914E2,2.2429565E3,4.6076787E3,1.060868E3,1.5937954E3,4.545726E3,2.6755247E3,5.6890723E3,4.0882336E3,6.2065497E2,8.361552E2,4.0437588E1,2.9418954E2,-3.2777484E2,-1.9453813E2],"categories":[],"categories_nodes":[],"categories_segments":[],"categories_sizes":[],"default_left":[0,0,0,0,0,0,0,0,0,0,0,0,0,0,0,0,0,0,0,0,0,0,0,0,0,0,0,0,0,0,0,0,0,0,0,0,0,0,0,0,0,0,0,0,0,0,0,0,0,0,0,0,0,0,0,0,0,0,0,0,0,0,0,0,0,0,0,0,0,0,0,0,0,0,0,0,0,0,0,0,0,0,0,0,0,0,0,0,0,0,0,0,0,0,0,0,0,0,0,0,0,0,0,0,0,0,0,0,0,0,0,0,0,0,0,0,0,0,0,0,0,0,0],"id":5,"left_children":[1,3,5,7,9,11,13,15,17,19,21,23,25,27,29,31,33,35,37,39,41,43,45,47,49,51,53,55,57,59,61,63,65,67,69,71,73,75,77,79,81,83,85,87,89,91,93,95,97,99,101,103,105,107,-1,109,111,113,115,117,119,121,-1,-1,-1,-1,-1,-1,-1,-1,-1,-1,-1,-1,-1,-1,-1,-1,-1,-1,-1,-1,-1,-1,-1,-1,-1,-1,-1,-1,-1,-1,-1,-1,-1,-1,-1,-1,-1,-1,-1,-1,-1,-1,-1,-1,-1,-1,-1,-1,-1,-1,-1,-1,-1,-1,-1,-1,-1,-1,-1,-1,-1],"loss_changes":[1.3306857E13,3.475449E12,8.844833E12,2.2795007E12,1.1535233E12,1.0771352E12,1.0077734E13,9.8128134E10,8.1387926E11,1.4957685E12,4.6048215E12,9.2701046E11,6.435989E10,1.3018658E12,1.7003987E11,4.9130373E10,2.0961987E10,1.0586898E12,4.8535346E11,1.1991402E13,1.30420834E11,1.4435903E12,5.263529E11,7.371166E11,8.124052E10,1.787553E10,8.570962E9,2.3189636E12,2.9692422E11,1.9408757E10,2.9139296E10,1.4424719E10,3.3973338E10,7.116877E9,1.2910873E10,6.675723E10,1.7465056E11,3.7847735E11,2.0680278E11,1.0002125E12,8.062113E11,7.191931E11,7.653294E10,6.5682424E10,1.1998357E12,5.28972E11,2.2153953E11,2.6849478E11,1.05345384E11,2.0282763E11,1.884064E11,3.725099E9,1.6864987E10,3.457532E9,0E0,2.7363157E12,9.277958E10,1.1522618E11,1.4443767E11,4.8545382E8,1.7879794E10,2.890838E9,0E0,0E0,0E0,0E0,0E0,0E0,0E0,0E0,0E0,0E0,0E0,0E0,0E0,0E0,0E0,0E0,0E0,0E0,0E0,0E0,0E0,0E0,0E0,0E0,0E0,0E0,0E0,0E0,0E0,0E0,0E0,0E0,0E0,0E0,0E0,0E0,0E0,0E0,0E0,0E0,0E0,0E0,0E0,0E0,0E0,0E0,0E0,0E0,0E0,0E0,0E0,0E0,0E0,0E0,0E0,0E0,0E0,0E0,0E0,0E0,0E0],"parents":[2147483647,0,0,1,1,2,2,3,3,4,4,5,5,6,6,7,7,8,8,9,9,10,10,11,11,12,12,13,13,14,14,15,15,16,16,17,17,18,18,19,19,20,20,21,21,22,22,23,23,24,24,25,25,26,26,27,27,28,28,29,29,30,30,31,31,32,32,33,33,34,34,35,35,36,36,37,37,38,38,39,39,40,40,41,41,42,42,43,43,44,44,45,45,46,46,47,47,48,48,49,49,50,50,51,51,52,52,53,53,55,55,56,56,57,57,58,58,59,59,60,60,61,61],"right_children":[2,4,6,8,10,12,14,16,18,20,22,24,26,28,30,32,34,36,38,40,42,44,46,48,50,52,54,56,58,60,62,64,66,68,70,72,74,76,78,80,82,84,86,88,90,92,94,96,98,100,102,104,106,108,-1,110,112,114,116,118,120,122,-1,-1,-1,-1,-1,-1,-1,-1,-1,-1,-1,-1,-1,-1,-1,-1,-1,-1,-1,-1,-1,-1,-1,-1,-1,-1,-1,-1,-1,-1,-1,-1,-1,-1,-1,-1,-1,-1,-1,-1,-1,-1,-1,-1,-1,-1,-1,-1,-1,-1,-1,-1,-1,-1,-1,-1,-1,-1,-1,-1,-1],"split_conditions":[9E1,1.1E1,1.51315E5,9.3188E4,7.2E1,9.6E1,9.6E1,5.7197E4,3E0,4.1E1,7.4E1,2E0,5.7197E4,9.5E1,9.8E1,5E0,9E0,2E0,4.7E1,3.8E1,4.7E1,7.0713E4,8.3E1,9.5E1,9.3E1,7.658E0,9.8E1,9.3E1,2.00898E5,1.52513E5,9.9E1,4E0,3.969E4,3E0,6E0,4.9E1,1.84109E5,7E0,4E0,1.7E1,2.00898E5,4.6E1,6.5E1,2E0,4.7E1,1.84109E5,8.7E1,9.3E1,3.991E4,9.2E1,9.5E1,3.969E4,9.8E1,5.326E0,-6.927795E2,9.2E1,2.00898E5,1.52513E5,2.02505E5,3.077E0,2.00898E5,2.00898E5,-7.261192E2,-3.3706064E2,-1.0819048E2,-2.7429684E2,-5.8883124E2,9.1566154E1,-1.6507011E2,1.9407675E0,5.924165E2,2.9348352E2,1.215479E3,1.3412524E3,2.110137E3,9.015627E1,5.082884E2,-1.7852472E2,1.201709E3,-2.1363003E1,-4.1667422E2,1.3506967E3,2.4494485E3,-5.661435E2,1.9685295E2,-5.7831946E2,-4.0055682E2,2.9088156E2,-6.720277E2,1.8023105E3,5.040402E3,-1.96799E2,3.3733795E2,-5.9323395E2,-1.3602429E2,1.5988313E2,-4.613303E2,1.9944174E2,1.266732E3,9.78465E2,2.1502515E3,4.9850177E2,1.6312E3,-5.524015E2,-3.315796E2,-4.7148796E1,-3.705411E2,-2.5842493E2,-5.3442914E2,2.2429565E3,4.6076787E3,1.060868E3,1.5937954E3,4.545726E3,2.6755247E3,5.6890723E3,4.0882336E3,6.2065497E2,8.361552E2,4.0437588E1,2.9418954E2,-3.2777484E2,-1.9453813E2],"split_indices":[1,1,7,7,1,1,1,7,1,1,1,6,7,1,1,1,1,1,4,1,1,7,1,1,1,11,1,1,7,7,1,1,7,1,3,4,7,1,1,1,7,1,1,6,4,7,1,1,7,1,1,7,1,11,0,1,7,7,7,9,7,7,0,0,0,0,0,0,0,0,0,0,0,0,0,0,0,0,0,0,0,0,0,0,0,0,0,0,0,0,0,0,0,0,0,0,0,0,0,0,0,0,0,0,0,0,0,0,0,0,0,0,0,0,0,0,0,0,0,0,0,0,0],"split_type":[0,0,0,0,0,0,0,0,0,0,0,0,0,0,0,0,0,0,0,0,0,0,0,0,0,0,0,0,0,0,0,0,0,0,0,0,0,0,0,0,0,0,0,0,0,0,0,0,0,0,0,0,0,0,0,0,0,0,0,0,0,0,0,0,0,0,0,0,0,0,0,0,0,0,0,0,0,0,0,0,0,0,0,0,0,0,0,0,0,0,0,0,0,0,0,0,0,0,0,0,0,0,0,0,0,0,0,0,0,0,0,0,0,0,0,0,0,0,0,0,0,0,0],"sum_hessian":[2.68679E5,2.33788E5,3.4891E4,4.0704E4,1.93084E5,1.8395E4,1.6496E4,1.0538E4,3.0166E4,1.57E5,3.6084E4,1.2829E4,5.566E3,1.0929E4,5.567E3,8.728E3,1.81E3,6.002E3,2.4164E4,1.01886E5,5.5114E4,3.862E3,3.2222E4,9.539E3,3.29E3,2.594E3,2.972E3,9.124E3,1.805E3,3.376E3,2.191E3,3.676E3,5.052E3,1.439E3,3.71E2,2.99E3,3.012E3,2.1648E4,2.516E3,9.3709E4,8.177E3,1.6478E4,3.8636E4,7.5E2,3.112E3,2.0554E4,1.1668E4,7.82E3,1.719E3,1.647E3,1.643E3,7.85E2,1.809E3,1.845E3,1.127E3,5.496E3,3.628E3,6.4E2,1.165E3,1.77E2,3.199E3,1.819E3,3.72E2,2.756E3,9.2E2,1.102E3,3.95E3,3.59E2,1.08E3,1.72E2,1.99E2,2.78E3,2.1E2,1.661E3,1.351E3,1.0856E4,1.0792E4,3.09E2,2.207E3,2.0475E4,7.3234E4,5.833E3,2.344E3,1.2362E4,4.116E3,3.1097E4,7.539E3,2.84E2,4.66E2,2.794E3,3.18E2,1.3496E4,7.058E3,7.599E3,4.069E3,5.211E3,2.609E3,2.76E2,1.443E3,1.084E3,5.63E2,1.089E3,5.54E2,3.87E2,3.98E2,1.204E3,6.05E2,1.26E2,1.719E3,3.653E3,1.843E3,1.273E3,2.355E3,1.01E2,5.39E2,1.78E2,9.87E2,7.6E1,1.01E2,1.019E3,2.18E3,6.28E2,1.191E3],"tree_param":{"num_deleted":"0","num_feature":"12","num_nodes":"123","size_leaf_vector":"1"}},{"base_weights":[7.7498636E0,-2.581901E3,1.7398031E4,3.846868E3,-4.658756E3,3.0519062E3,3.3435793E4,-6.2078296E3,8.287995E3,-6.0060986E3,6.1008624E2,7.8668765E3,-8.088885E3,5.032757E4,2.9024374E2,-8.57779E3,-4.9253912E2,1.989179E4,6.3625225E3,-3.8529727E3,-9.353236E3,3.2110332E4,-3.19404E3,2.6399329E3,2.0044633E4,-4.695761E3,-1.1029848E4,4.5719426E4,7.364222E4,4.4827114E3,-6.128207E3,-5.330316E3,-9.953167E3,5.555254E3,-1.5036638E3,6.7332266E3,3.3095918E4,5.1863647E3,1.6372102E4,-7.607793E3,3.1625207E4,-7.142179E3,-1.0304899E4,-5.5740776E3,4.0873465E4,-2.783304E2,-8.284926E3,-1.3972732E3,2.050544E4,2.458878E4,8.356792E3,-8.284875E3,-3.063686E3,-9.747688E3,-6.585568E2,5.804285E4,2.7033822E4,5.1292816E4,8.109298E4,1.66308E4,2.30747E3,-4.561575E3,-6.9194855E2,-3.202599E2,-1.08133804E2,-3.0531702E2,-5.481718E2,-2.7753626E1,5.764008E2,1.0842745E2,-1.2837642E2,2.9757468E2,1.5532968E3,2.550802E3,1.4424515E3,4.1768344E2,1.1068935E2,1.2629812E3,3.6116318E2,-2.7417258E2,-4.9632193E2,1.9059631E3,7.755614E2,-5.3677795E2,1.8038275E2,-5.481116E2,-3.807494E2,3.152439E2,-6.388407E2,1.6924026E3,4.8913345E3,-1.8772351E2,3.2107288E2,-5.6463745E2,-1.3073413E2,1.4153374E2,-5.0259763E2,3.2853134E2,1.2290898E3,9.123674E2,1.7128348E3,2.7821176E2,1.1071405E3,-5.173395E2,-3.1240305E2,-4.7078693E1,-3.5469553E2,-2.3971004E2,-5.0514853E2,2.1365703E3,4.383527E3,2.2339937E3,1.190597E3,4.3194097E3,2.0864614E3,4.5603228E3,3.4605508E3,7.2888617E2,9.247135E2,1.810163E1,3.142553E2,-1.5423796E2,-3.0082236E2],"categories":[],"categories_nodes":[],"categories_segments":[],"categories_sizes":[],"default_left":[0,0,0,0,0,0,0,0,0,0,0,0,0,0,0,0,0,0,0,0,0,0,0,0,0,0,0,0,0,0,0,0,0,0,0,0,0,0,0,0,0,0,0,0,0,0,0,0,0,0,0,0,0,0,0,0,0,0,0,0,0,0,0,0,0,0,0,0,0,0,0,0,0,0,0,0,0,0,0,0,0,0,0,0,0,0,0,0,0,0,0,0,0,0,0,0,0,0,0,0,0,0,0,0,0,0,0,0,0,0,0,0,0,0,0,0,0,0,0,0,0,0,0],"id":6,"left_children":[1,3,5,7,9,11,13,15,17,19,21,23,25,27,29,31,33,35,37,39,41,43,45,47,49,51,53,55,57,59,61,63,65,67,69,71,73,75,77,79,81,83,85,87,89,91,93,95,97,99,101,103,105,107,-1,109,111,113,115,117,119,121,-1,-1,-1,-1,-1,-1,-1,-1,-1,-1,-1,-1,-1,-1,-1,-1,-1,-1,-1,-1,-1,-1,-1,-1,-1,-1,-1,-1,-1,-1,-1,-1,-1,-1,-1,-1,-1,-1,-1,-1,-1,-1,-1,-1,-1,-1,-1,-1,-1,-1,-1,-1,-1,-1,-1,-1,-1,-1,-1,-1,-1],"loss_changes":[1.2089579E13,3.1197065E12,8.0053556E12,2.5477545E12,1.2537024E12,9.853754E11,9.198086E12,2.3676722E11,8.8401484E11,1.01350795E12,4.3099326E12,8.1629505E11,5.524118E10,1.1641354E12,1.4931971E11,5.5110795E10,3.1355335E10,9.7812375E11,3.9949592E11,1.1401832E13,1.1573238E11,1.2801611E12,4.7634822E11,6.474165E11,2.0424963E11,1.5054295E10,7.9573484E9,2.0909214E12,2.924143E11,8.8638054E10,2.6390544E10,1.2507316E10,3.3627111E10,2.6815564E10,1.7168695E10,5.341135E10,2.1168495E11,2.859782E11,2.8988277E11,3.811469E11,8.5631225E11,6.401473E11,6.792151E10,6.279426E10,1.2532103E12,4.7529125E11,1.9927E11,2.6798418E11,9.37387E10,1.6904002E11,4.1412542E10,3.2817152E9,1.5157994E10,3.2051364E9,0E0,2.478754E12,2.03958E11,1.4646863E11,1.5185687E11,1.5448637E9,2.2038966E10,3.8922445E9,0E0,0E0,0E0,0E0,0E0,0E0,0E0,0E0,0E0,0E0,0E0,0E0,0E0,0E0,0E0,0E0,0E0,0E0,0E0,0E0,0E0,0E0,0E0,0E0,0E0,0E0,0E0,0E0,0E0,0E0,0E0,0E0,0E0,0E0,0E0,0E0,0E0,0E0,0E0,0E0,0E0,0E0,0E0,0E0,0E0,0E0,0E0,0E0,0E0,0E0,0E0,0E0,0E0,0E0,0E0,0E0,0E0,0E0,0E0,0E0,0E0],"parents":[2147483647,0,0,1,1,2,2,3,3,4,4,5,5,6,6,7,7,8,8,9,9,10,10,11,11,12,12,13,13,14,14,15,15,16,16,17,17,18,18,19,19,20,20,21,21,22,22,23,23,24,24,25,25,26,26,27,27,28,28,29,29,30,30,31,31,32,32,33,33,34,34,35,35,36,36,37,37,38,38,39,39,40,40,41,41,42,42,43,43,44,44,45,45,46,46,47,47,48,48,49,49,50,50,51,51,52,52,53,53,55,55,56,56,57,57,58,58,59,59,60,60,61,61],"right_children":[2,4,6,8,10,12,14,16,18,20,22,24,26,28,30,32,34,36,38,40,42,44,46,48,50,52,54,56,58,60,62,64,66,68,70,72,74,76,78,80,82,84,86,88,90,92,94,96,98,100,102,104,106,108,-1,110,112,114,116,118,120,122,-1,-1,-1,-1,-1,-1,-1,-1,-1,-1,-1,-1,-1,-1,-1,-1,-1,-1,-1,-1,-1,-1,-1,-1,-1,-1,-1,-1,-1,-1,-1,-1,-1,-1,-1,-1,-1,-1,-1,-1,-1,-1,-1,-1,-1,-1,-1,-1,-1,-1,-1,-1,-1,-1,-1,-1,-1,-1,-1,-1,-1],"split_conditions":[9E1,1.6E1,1.51315E5,1.03681E5,7.2E1,9.6E1,9.6E1,5.7197E4,3E0,4.1E1,7.4E1,3.6E1,5.7197E4,9.5E1,9.8E1,5E0,3E0,2E0,4.7E1,3.8E1,4.7E1,7.0713E4,8.3E1,9.5E1,4.4E1,7.658E0,9.8E1,9.3E1,1.84109E5,5E0,9.9E1,4E0,6E0,2E0,1.30244E2,2.19622E5,1.3152791E2,2.1E1,9E0,2.7E1,3.3E1,4.6E1,6.5E1,1.7E1,4.7E1,1.84109E5,8.7E1,9.3E1,1E1,3.9E1,9.5E1,6E0,9.8E1,5.326E0,-6.585568E2,9.2E1,5E0,2E0,2.1E1,9.7E1,2.0237926E2,2.1E1,-6.9194855E2,-3.202599E2,-1.08133804E2,-3.0531702E2,-5.481718E2,-2.7753626E1,5.764008E2,1.0842745E2,-1.2837642E2,2.9757468E2,1.5532968E3,2.550802E3,1.4424515E3,4.1768344E2,1.1068935E2,1.2629812E3,3.6116318E2,-2.7417258E2,-4.9632193E2,1.9059631E3,7.755614E2,-5.3677795E2,1.8038275E2,-5.481116E2,-3.807494E2,3.152439E2,-6.388407E2,1.6924026E3,4.8913345E3,-1.8772351E2,3.2107288E2,-5.6463745E2,-1.3073413E2,1.4153374E2,-5.0259763E2,3.2853134E2,1.2290898E3,9.123674E2,1.7128348E3,2.7821176E2,1.1071405E3,-5.173395E2,-3.1240305E2,-4.7078693E1,-3.5469553E2,-2.3971004E2,-5.0514853E2,2.1365703E3,4.383527E3,2.2339937E3,1.190597E3,4.3194097E3,2.0864614E3,4.5603228E3,3.4605508E3,7.2888617E2,9.247135E2,1.810163E1,3.142553E2,-1.5423796E2,-3.0082236E2],"split_indices":[1,1,7,7,1,1,1,7,1,1,1,0,7,1,1,1,1,1,4,1,1,7,1,1,0,11,1,1,7,0,1,1,0,1,10,7,10,0,1,1,0,1,1,0,4,7,1,1,0,0,1,0,1,11,0,1,0,0,0,1,10,0,0,0,0,0,0,0,0,0,0,0,0,0,0,0,0,0,0,0,0,0,0,0,0,0,0,0,0,0,0,0,0,0,0,0,0,0,0,0,0,0,0,0,0,0,0,0,0,0,0,0,0,0,0,0,0,0,0,0,0,0,0],"split_type":[0,0,0,0,0,0,0,0,0,0,0,0,0,0,0,0,0,0,0,0,0,0,0,0,0,0,0,0,0,0,0,0,0,0,0,0,0,0,0,0,0,0,0,0,0,0,0,0,0,0,0,0,0,0,0,0,0,0,0,0,0,0,0,0,0,0,0,0,0,0,0,0,0,0,0,0,0,0,0,0,0,0,0,0,0,0,0,0,0,0,0,0,0,0,0,0,0,0,0,0,0,0,0,0,0,0,0,0,0,0,0,0,0,0,0,0,0,0,0,0,0,0,0],"sum_hessian":[2.68447E5,2.33654E5,3.4793E4,5.7052E4,1.76602E5,1.8366E4,1.6427E4,1.7479E4,3.9573E4,1.40638E5,3.5964E4,1.2824E4,5.542E3,1.0881E4,5.546E3,1.2355E4,5.124E3,5.63E3,3.3943E4,8.5586E4,5.5052E4,3.874E3,3.209E4,8.974E3,3.85E3,2.575E3,2.967E3,9.089E3,1.792E3,3.355E3,2.191E3,3.678E3,8.677E3,7.33E2,4.391E3,2.821E3,2.809E3,3.0376E4,3.567E3,7.7396E4,8.19E3,1.6569E4,3.8483E4,7.31E2,3.143E3,2.0405E4,1.1685E4,7.321E3,1.653E3,2.771E3,1.079E3,8.03E2,1.772E3,1.861E3,1.106E3,5.475E3,3.614E3,4.51E2,1.341E3,5.08E2,2.847E3,1.823E3,3.68E2,2.745E3,9.33E2,1.807E3,6.87E3,3.63E2,3.7E2,9.86E2,3.405E3,2.735E3,8.6E1,5.35E2,2.274E3,1.4705E4,1.5671E4,1.808E3,1.759E3,4.0393E4,3.7003E4,5.836E3,2.354E3,1.2418E4,4.151E3,3.0922E4,7.561E3,2.76E2,4.55E2,2.8E3,3.43E2,1.3435E4,6.97E3,7.634E3,4.051E3,4.919E3,2.402E3,3.75E2,1.278E3,1.676E3,1.095E3,8.99E2,1.8E2,3.96E2,4.07E2,1.162E3,6.1E2,1.26E2,1.735E3,3.612E3,1.863E3,5.55E2,3.059E3,9.4E1,3.57E2,7.19E2,6.22E2,2.48E2,2.6E2,1.913E3,9.34E2,9.07E2,9.16E2],"tree_param":{"num_deleted":"0","num_feature":"12","num_nodes":"123","size_leaf_vector":"1"}},{"base_weights":[6.950061E0,-2.441344E3,1.648155E4,4.0546558E3,-4.3442905E3,2.5828395E4,-3.6508923E3,7.9065356E3,-2.4150286E3,-5.558455E3,5.518156E2,6.666589E4,2.3896467E4,-1.1891863E3,-7.921523E3,1.801921E4,6.0617627E3,-7.2264556E3,-4.4928857E2,-3.488488E3,-8.925987E3,2.981931E4,-2.9819348E3,6.1703242E4,9.144661E4,2.026158E4,4.1071883E4,1.5281081E4,-2.0272288E3,-7.3894824E3,-6.532526E2,6.0165806E3,2.9983203E4,4.8874854E3,1.7743041E4,-9.25268E3,-4.9850405E3,7.2847544E3,-1.8907618E3,-6.889297E3,3.021476E4,-6.8660605E3,-9.804835E3,2.4815924E4,7.1210586E4,-2.4532391E2,-7.777759E3,7.369619E4,4.322712E4,4.0879504E3,4.959517E3,2.6675674E4,9.372436E3,-1.5563085E3,4.211045E4,1.282111E4,1.7352967E4,-3.7245083E3,-3.4882614E2,-3.5641062E3,-7.7202856E3,6.7463873E2,1.8871324E2,2.5350771E3,1.2129912E3,3.2598642E2,-5.0114062E2,1.4807767E3,7.170694E2,-2.4036638E2,-5.0541953E2,-5.763576E1,-4.4073453E2,-2.21295E1,7.5896155E2,-1.5270354E2,4.7721027E2,-2.3878697E2,-4.710947E2,2.0572444E3,1.0676575E3,-5.1037106E2,1.7175616E2,-5.2190173E2,-3.6203604E2,1.663095E3,4.027883E2,9.877276E3,2.3502751E3,8.461231E1,-1.6949452E2,-5.3542017E2,-1.1730596E2,2.679501E3,5.6242163E3,2.1748118E3,1.226681E3,8.465709E2,2.3071406E3,1.574624E3,4.3219122E2,-1.517168E2,-1.0257346E1,5.318195E3,2.0197233E3,4.751788E2,6.832948E2,7.201855E2,9.888554E2,8.717243E1,-2.6103506E2,-1.2640911E2,2.1752432E2,-1.6151276E2,-5.3407214E2,-4.9442926E2,-3.6490283E2],"categories":[],"categories_nodes":[],"categories_segments":[],"categories_sizes":[],"default_left":[0,0,0,0,0,0,0,0,0,0,0,0,0,0,0,0,0,0,0,0,0,0,0,0,0,0,0,0,0,0,0,0,0,0,0,0,0,0,0,0,0,0,0,0,0,0,0,0,0,0,0,0,0,0,0,0,0,0,0,0,0,0,0,0,0,0,0,0,0,0,0,0,0,0,0,0,0,0,0,0,0,0,0,0,0,0,0,0,0,0,0,0,0,0,0,0,0,0,0,0,0,0,0,0,0,0,0,0,0,0,0,0,0,0,0,0,0],"id":7,"left_children":[1,3,5,7,9,11,13,15,17,19,21,23,25,27,29,31,33,35,37,39,41,43,45,47,49,51,53,55,57,59,-1,61,63,65,67,69,71,73,75,77,79,81,83,85,87,89,91,93,95,-1,-1,97,99,101,103,105,107,109,111,113,115,-1,-1,-1,-1,-1,-1,-1,-1,-1,-1,-1,-1,-1,-1,-1,-1,-1,-1,-1,-1,-1,-1,-1,-1,-1,-1,-1,-1,-1,-1,-1,-1,-1,-1,-1,-1,-1,-1,-1,-1,-1,-1,-1,-1,-1,-1,-1,-1,-1,-1,-1,-1,-1,-1,-1,-1],"loss_changes":[1.0826509E13,2.888776E12,6.53517E12,1.3195042E12,1.0744606E12,1.8688047E12,1.1576069E11,6.18987E11,1.8689024E11,1.00949977E12,3.714762E12,1.2318409E11,1.4127129E12,9.649342E10,1.0873946E10,7.3488636E11,3.849147E11,2.5961038E10,1.5643851E11,1.0281173E13,9.970883E10,7.987098E11,4.206114E11,1.938707E11,1.001259E9,1.3053932E12,1.7517249E11,1.3915259E9,1.894346E10,4.58077E9,0E0,4.2797507E10,3.0213197E11,6.2090425E11,1.028927E11,1.137125E10,3.9970787E10,1.3449192E11,1.5737782E11,4.3605898E11,7.9500463E11,5.6772395E11,6.262463E10,4.8860273E11,1.2597065E12,1.243417E11,1.8530592E11,4.1326346E11,1.9267584E8,0E0,0E0,2.2304685E12,1.1132214E11,1.8978458E8,4.1920548E11,2.5500262E8,8.5602304E8,2.7064517E10,3.4279352E10,6.456374E8,2.9683712E9,0E0,0E0,0E0,0E0,0E0,0E0,0E0,0E0,0E0,0E0,0E0,0E0,0E0,0E0,0E0,0E0,0E0,0E0,0E0,0E0,0E0,0E0,0E0,0E0,0E0,0E0,0E0,0E0,0E0,0E0,0E0,0E0,0E0,0E0,0E0,0E0,0E0,0E0,0E0,0E0,0E0,0E0,0E0,0E0,0E0,0E0,0E0,0E0,0E0,0E0,0E0,0E0,0E0,0E0,0E0,0E0],"parents":[2147483647,0,0,1,1,2,2,3,3,4,4,5,5,6,6,7,7,8,8,9,9,10,10,11,11,12,12,13,13,14,14,15,15,16,16,17,17,18,18,19,19,20,20,21,21,22,22,23,23,24,24,25,25,26,26,27,27,28,28,29,29,31,31,32,32,33,33,34,34,35,35,36,36,37,37,38,38,39,39,40,40,41,41,42,42,43,43,44,44,45,45,46,46,47,47,48,48,51,51,52,52,53,53,54,54,55,55,56,56,57,57,58,58,59,59,60,60],"right_children":[2,4,6,8,10,12,14,16,18,20,22,24,26,28,30,32,34,36,38,40,42,44,46,48,50,52,54,56,58,60,-1,62,64,66,68,70,72,74,76,78,80,82,84,86,88,90,92,94,96,-1,-1,98,100,102,104,106,108,110,112,114,116,-1,-1,-1,-1,-1,-1,-1,-1,-1,-1,-1,-1,-1,-1,-1,-1,-1,-1,-1,-1,-1,-1,-1,-1,-1,-1,-1,-1,-1,-1,-1,-1,-1,-1,-1,-1,-1,-1,-1,-1,-1,-1,-1,-1,-1,-1,-1,-1,-1,-1,-1,-1,-1,-1,-1,-1],"split_conditions":[9E1,1.4E1,9.6E1,2.9E1,7.2E1,3E0,9.8E1,3E0,1.3152791E2,4.1E1,7.4E1,9.5E1,9.5E1,3E0,9.9E1,2E0,1.3E1,9.521E0,3E0,3.8E1,4.7E1,4.7E1,8.3E1,9.3E1,2E0,9.3E1,4E0,9.7E1,2.6E1,5E0,-6.532526E2,1.319809E2,1.3152791E2,1.2E1,1.3152791E2,3E0,3.5E1,2E0,1.3E1,2.7E1,2.1E1,4.6E1,6.5E1,2.9E1,1.2E1,2.9E1,8.7E1,9.2E1,5.2E1,4.0879504E3,4.959517E3,9.2E1,5E0,6.893E1,5E0,1.1E1,2E0,7E0,2.0237926E2,2.2164822E2,1.3E1,6.7463873E2,1.8871324E2,2.5350771E3,1.2129912E3,3.2598642E2,-5.0114062E2,1.4807767E3,7.170694E2,-2.4036638E2,-5.0541953E2,-5.763576E1,-4.4073453E2,-2.21295E1,7.5896155E2,-1.5270354E2,4.7721027E2,-2.3878697E2,-4.710947E2,2.0572444E3,1.0676575E3,-5.1037106E2,1.7175616E2,-5.2190173E2,-3.6203604E2,1.663095E3,4.027883E2,9.877276E3,2.3502751E3,8.461231E1,-1.6949452E2,-5.3542017E2,-1.1730596E2,2.679501E3,5.6242163E3,2.1748118E3,1.226681E3,8.465709E2,2.3071406E3,1.574624E3,4.3219122E2,-1.517168E2,-1.0257346E1,5.318195E3,2.0197233E3,4.751788E2,6.832948E2,7.201855E2,9.888554E2,8.717243E1,-2.6103506E2,-1.2640911E2,2.1752432E2,-1.6151276E2,-5.3407214E2,-4.9442926E2,-3.6490283E2],"split_indices":[1,1,1,0,1,0,1,1,10,1,1,1,1,0,1,1,1,11,1,1,1,4,1,1,0,1,0,1,0,0,0,10,10,1,10,1,0,1,1,1,0,1,1,0,3,0,1,1,4,0,0,1,0,8,0,4,0,0,10,10,0,0,0,0,0,0,0,0,0,0,0,0,0,0,0,0,0,0,0,0,0,0,0,0,0,0,0,0,0,0,0,0,0,0,0,0,0,0,0,0,0,0,0,0,0,0,0,0,0,0,0,0,0,0,0,0,0],"split_type":[0,0,0,0,0,0,0,0,0,0,0,0,0,0,0,0,0,0,0,0,0,0,0,0,0,0,0,0,0,0,0,0,0,0,0,0,0,0,0,0,0,0,0,0,0,0,0,0,0,0,0,0,0,0,0,0,0,0,0,0,0,0,0,0,0,0,0,0,0,0,0,0,0,0,0,0,0,0,0,0,0,0,0,0,0,0,0,0,0,0,0,0,0,0,0,0,0,0,0,0,0,0,0,0,0,0,0,0,0,0,0,0,0,0,0,0,0],"sum_hessian":[2.68414E5,2.33687E5,3.4727E4,5.2946E4,1.80741E5,2.3716E4,1.1011E4,3.3187E4,1.9759E4,1.44826E5,3.5915E4,1.069E3,2.2647E4,6.986E3,4.025E3,5.118E3,2.8069E4,5.73E3,1.4029E4,8.9695E4,5.5131E4,3.868E3,3.2047E4,8.95E2,1.74E2,1.8694E4,3.953E3,3.37E2,6.649E3,3.651E3,3.74E2,2.556E3,2.562E3,2.5507E4,2.562E3,3.007E3,2.723E3,2.203E3,1.1826E4,8.1475E4,8.22E3,1.6491E4,3.864E4,3.453E3,4.15E2,2.0405E4,1.1642E4,5.4E2,3.55E2,8.5E1,8.9E1,1.1763E4,6.931E3,9.4E1,3.859E3,1.59E2,1.78E2,3.305E3,3.344E3,2.92E2,3.359E3,5.88E2,1.968E3,5.52E2,2.01E3,2.2991E4,2.516E3,5.68E2,1.994E3,4.87E2,2.52E3,1.362E3,1.361E3,1.114E3,1.089E3,1.0735E4,1.091E3,4.4414E4,3.7061E4,3.678E3,4.542E3,1.2452E4,4.039E3,3.0984E4,7.656E3,2.295E3,1.158E3,6.5E1,3.5E2,1.2626E4,7.779E3,7.561E3,4.081E3,3.58E2,1.82E2,3.48E2,7E0,7.841E3,3.922E3,2.19E2,6.712E3,4.4E1,5E1,9.8E1,3.761E3,3.6E1,1.23E2,8.5E1,9.3E1,7.1E2,2.595E3,2.285E3,1.059E3,2.81E2,1.1E1,5.42E2,2.817E3],"tree_param":{"num_deleted":"0","num_feature":"12","num_nodes":"117","size_leaf_vector":"1"}},{"base_weights":[-2.1218895E1,2.9181155E3,-3.1058179E3,5.99031E3,1.5741656E2,-1.2680566E3,-5.3416465E3,8.1795337E3,2.1884055E3,2.169127E3,-1.4484635E3,9.880607E3,-2.399533E3,-6.7887485E3,-3.9294622E3,7.466223E3,1.1986219E4,-2.3290012E3,4.117787E3,-9.288269E1,3.657931E3,-3.4277969E3,7.502252E2,9.22504E3,1.6661986E4,-7.0393604E2,-4.702974E3,-7.858738E3,-6.0963784E3,-4.4587925E3,-2.5788174E3,6.86402E3,1.0413205E4,1.2459009E4,4.506891E3,3.4974343E3,-3.0492424E3,6.0134688E3,2.8286897E3,1.6157045E3,-1.8880067E3,7.073103E3,1.9414044E3,-5.150721E2,-4.72394E3,-1.9086846E3,2.6062742E3,8.937547E3,1.316857E4,1.9328488E4,3.0879086E2,-2.7647056E3,1.3524108E3,-6.010376E3,-2.513503E3,-7.375607E3,-8.336471E3,-6.2787256E3,-4.2536284E3,-3.5124988E3,-4.8261353E3,-3.5376003E3,-2.0308208E3,4.2665942E2,2.6605377E2,4.7298727E2,6.164471E2,2.9632504E2,6.5189343E2,1.6972968E2,5.4960596E2,7.98191E1,2.1474052E2,-1.6728479E2,-7.324648E1,2.2281436E2,3.8047482E2,1.2125741E2,6.494492E2,2.5321173E1,1.16216675E2,-1.4401141E2,-6.242399E1,3.2306848E2,5.166095E2,1.3205411E2,6.569135E1,-4.553168E1,8.108578E1,-3.9584695E2,-1.7392018E2,-1.12306206E2,-2.3382538E1,9.633358E1,2.3652881E2,3.116246E2,4.586017E2,7.504797E2,4.2087448E2,1.0840154E3,6.285741E2,-6.2900806E1,-2.839686E2,1.2210799E1,1.7609167E2,-2.6613965E2,-3.982001E2,-3.0321573E2,-7.5891464E1,-3.7372742E2,-3.148488E2,-4.2454562E2,-3.7753824E2,-3.332415E2,-2.868092E2,-1.9387755E2,-2.848364E2,-1.9019081E2,-2.6596277E1,-2.50526E2,-1.916793E2,-1.9262157E2,-9.372503E1,-1.7007274E2,-9.094296E1],"categories":[],"categories_nodes":[],"categories_segments":[],"categories_sizes":[],"default_left":[0,0,0,0,0,0,0,0,0,0,0,0,0,0,0,0,0,0,0,0,0,0,0,0,0,0,0,0,0,0,0,0,0,0,0,0,0,0,0,0,0,0,0,0,0,0,0,0,0,0,0,0,0,0,0,0,0,0,0,0,0,0,0,0,0,0,0,0,0,0,0,0,0,0,0,0,0,0,0,0,0,0,0,0,0,0,0,0,0,0,0,0,0,0,0,0,0,0,0,0,0,0,0,0,0,0,0,0,0,0,0,0,0,0,0,0,0,0,0,0,0,0,0,0,0],"id":8,"left_children":[1,3,5,7,9,11,13,15,17,19,21,23,25,27,29,31,33,35,37,39,41,43,45,47,49,51,53,55,57,59,61,63,65,67,69,71,73,75,77,79,81,83,85,87,89,91,93,95,97,99,-1,101,103,105,107,109,111,113,115,117,119,121,123,-1,-1,-1,-1,-1,-1,-1,-1,-1,-1,-1,-1,-1,-1,-1,-1,-1,-1,-1,-1,-1,-1,-1,-1,-1,-1,-1,-1,-1,-1,-1,-1,-1,-1,-1,-1,-1,-1,-1,-1,-1,-1,-1,-1,-1,-1,-1,-1,-1,-1,-1,-1,-1,-1,-1,-1,-1,-1,-1,-1,-1,-1],"loss_changes":[2.4397496E12,1.168647E12,5.39493E11,5.4277623E11,2.3446462E11,9.091275E11,1.2101013E11,1.1223905E11,2.0773375E11,1.0849904E11,1.7564588E11,2.9290725E10,2.5553961E11,2.159988E10,2.1418344E10,6.1753786E10,2.3001629E10,2.9951295E10,4.0785773E10,3.9231582E10,1.1387965E11,8.0182034E10,9.437333E10,6.6922086E9,1.6136421E10,1.5971652E11,7.9387886E10,2.5591808E9,5.9302216E9,7.461667E9,4.4265677E9,7.448442E10,1.0622861E10,2.3099933E10,2.7609006E9,1.1804191E9,2.974847E9,1.6746054E10,4.0722088E10,5.149737E9,3.9526257E9,1.2855869E10,5.673476E9,5.532139E9,5.8414563E10,3.8211727E9,1.6244343E10,3.4989998E9,3.3835745E9,6.9726536E9,0E0,8.265705E10,4.535407E10,2.326718E10,3.666471E10,5.4031155E8,6.032589E8,3.32877E9,8.376525E8,5.2314685E9,2.8099543E9,1.5963464E9,1.5530025E9,0E0,0E0,0E0,0E0,0E0,0E0,0E0,0E0,0E0,0E0,0E0,0E0,0E0,0E0,0E0,0E0,0E0,0E0,0E0,0E0,0E0,0E0,0E0,0E0,0E0,0E0,0E0,0E0,0E0,0E0,0E0,0E0,0E0,0E0,0E0,0E0,0E0,0E0,0E0,0E0,0E0,0E0,0E0,0E0,0E0,0E0,0E0,0E0,0E0,0E0,0E0,0E0,0E0,0E0,0E0,0E0,0E0,0E0,0E0,0E0,0E0,0E0],"parents":[2147483647,0,0,1,1,2,2,3,3,4,4,5,5,6,6,7,7,8,8,9,9,10,10,11,11,12,12,13,13,14,14,15,15,16,16,17,17,18,18,19,19,20,20,21,21,22,22,23,23,24,24,25,25,26,26,27,27,28,28,29,29,30,30,31,31,32,32,33,33,34,34,35,35,36,36,37,37,38,38,39,39,40,40,41,41,42,42,43,43,44,44,45,45,46,46,47,47,48,48,49,49,51,51,52,52,53,53,54,54,55,55,56,56,57,57,58,58,59,59,60,60,61,61,62,62],"right_children":[2,4,6,8,10,12,14,16,18,20,22,24,26,28,30,32,34,36,38,40,42,44,46,48,50,52,54,56,58,60,62,64,66,68,70,72,74,76,78,80,82,84,86,88,90,92,94,96,98,100,-1,102,104,106,108,110,112,114,116,118,120,122,124,-1,-1,-1,-1,-1,-1,-1,-1,-1,-1,-1,-1,-1,-1,-1,-1,-1,-1,-1,-1,-1,-1,-1,-1,-1,-1,-1,-1,-1,-1,-1,-1,-1,-1,-1,-1,-1,-1,-1,-1,-1,-1,-1,-1,-1,-1,-1,-1,-1,-1,-1,-1,-1,-1,-1,-1,-1,-1,-1,-1,-1,-1],"split_conditions":[1E0,2.1E1,1.8265858E2,2.1338205E2,3.2E1,1.1E1,1.7E1,1.1E1,6.442E0,2.7E1,3.7E1,1.2E1,2.4E1,6E0,3.8E1,8.358E0,3.595E0,7E0,3E0,2.5E1,2.8E1,3.3E1,1.901715E2,1E0,1E0,1.8E1,1.3508374E2,4E0,1.2E1,2.2E1,1.8850244E2,7.545E0,8.743E0,2E0,1E0,2E0,1.1E1,2E0,1.2E1,5E0,5E0,1.1E1,6.422E1,1.1E1,3.4E1,4.1E1,2.1393242E2,2E0,6.097E1,3.545E0,3.0879086E2,1.3152791E2,2.3E1,4.3E1,3E1,1.2E1,1.1E1,5.426E1,3.177E0,1.2E1,1.1E1,1.1E1,8.433E0,4.2665942E2,2.6605377E2,4.7298727E2,6.164471E2,2.9632504E2,6.5189343E2,1.6972968E2,5.4960596E2,7.98191E1,2.1474052E2,-1.6728479E2,-7.324648E1,2.2281436E2,3.8047482E2,1.2125741E2,6.494492E2,2.5321173E1,1.16216675E2,-1.4401141E2,-6.242399E1,3.2306848E2,5.166095E2,1.3205411E2,6.569135E1,-4.553168E1,8.108578E1,-3.9584695E2,-1.7392018E2,-1.12306206E2,-2.3382538E1,9.633358E1,2.3652881E2,3.116246E2,4.586017E2,7.504797E2,4.2087448E2,1.0840154E3,6.285741E2,-6.2900806E1,-2.839686E2,1.2210799E1,1.7609167E2,-2.6613965E2,-3.982001E2,-3.0321573E2,-7.5891464E1,-3.7372742E2,-3.148488E2,-4.2454562E2,-3.7753824E2,-3.332415E2,-2.868092E2,-1.9387755E2,-2.848364E2,-1.9019081E2,-2.6596277E1,-2.50526E2,-1.916793E2,-1.9262157E2,-9.372503E1,-1.7007274E2,-9.094296E1],"split_indices":[6,0,10,10,0,0,0,3,11,0,0,3,0,0,0,11,9,0,0,0,0,0,10,5,5,0,10,0,3,0,10,11,11,0,5,3,3,0,0,3,3,3,8,3,0,0,10,3,8,9,0,10,0,0,0,3,3,8,9,3,3,3,11,0,0,0,0,0,0,0,0,0,0,0,0,0,0,0,0,0,0,0,0,0,0,0,0,0,0,0,0,0,0,0,0,0,0,0,0,0,0,0,0,0,0,0,0,0,0,0,0,0,0,0,0,0,0,0,0,0,0,0,0,0,0],"split_type":[0,0,0,0,0,0,0,0,0,0,0,0,0,0,0,0,0,0,0,0,0,0,0,0,0,0,0,0,0,0,0,0,0,0,0,0,0,0,0,0,0,0,0,0,0,0,0,0,0,0,0,0,0,0,0,0,0,0,0,0,0,0,0,0,0,0,0,0,0,0,0,0,0,0,0,0,0,0,0,0,0,0,0,0,0,0,0,0,0,0,0,0,0,0,0,0,0,0,0,0,0,0,0,0,0,0,0,0,0,0,0,0,0,0,0,0,0,0,0,0,0,0,0,0,0],"sum_hessian":[2.69087E5,1.37788E5,1.31299E5,6.5214E4,7.2574E4,7.2066E4,5.9233E4,4.1383E4,2.3831E4,3.2216E4,4.0358E4,6.639E3,6.5427E4,2.9252E4,2.9981E4,3.4856E4,6.527E3,7.132E3,1.6699E4,1.2788E4,1.9428E4,2.1238E4,1.912E4,6.057E3,5.82E2,3.7687E4,2.774E4,1.1486E4,1.7766E4,2.1537E4,8.444E3,2.8946E4,5.91E3,6.138E3,3.89E2,7.84E2,6.348E3,6.757E3,9.942E3,6.552E3,6.236E3,6.497E3,1.2931E4,6.541E3,1.4697E4,7.86E3,1.126E4,5.65E3,4.07E2,4.63E2,1.19E2,1.8823E4,1.8864E4,1.7367E4,1.0373E4,5.723E3,5.763E3,1.6163E4,1.603E3,6.027E3,1.551E4,3.068E3,5.376E3,1.3901E4,1.5045E4,3.952E3,1.958E3,5.01E2,5.637E3,3.34E2,5.5E1,2.33E2,5.51E2,5.346E3,1.002E3,3.423E3,3.334E3,9.564E3,3.78E2,2.555E3,3.997E3,2.442E3,3.794E3,5.474E3,1.023E3,6.112E3,6.819E3,5.52E3,1.021E3,4.122E3,1.0575E4,6.368E3,1.492E3,8.533E3,2.727E3,4.54E2,5.196E3,2.91E2,1.16E2,3.41E2,1.22E2,1.241E4,6.413E3,1.2487E4,6.377E3,1.285E4,4.517E3,2.27E3,8.103E3,5.234E3,4.89E2,4.804E3,9.59E2,9.433E3,6.73E3,1.276E3,3.27E2,5.49E3,5.37E2,1.3075E4,2.435E3,2.578E3,4.9E2,7.17E2,4.659E3],"tree_param":{"num_deleted":"0","num_feature":"12","num_nodes":"125","size_leaf_vector":"1"}},{"base_weights":[1.2990844E1,-2.3165996E3,1.566207E4,4.983134E3,-3.8491863E3,2.849402E4,1.8071567E3,8.840885E3,-1.5249465E3,-4.8641733E3,5.893076E2,4.312091E4,-1.15621574E2,-2.5016018E3,1.207465E4,1.7040707E4,6.5926606E3,1.5994666E3,-7.339073E3,-2.907378E3,-8.474628E3,2.8724479E4,-2.8305105E3,5.016239E4,2.7917086E4,3.2706992E3,-5.4576816E3,5.2485004E2,-1.0037319E4,1.9570494E4,-2.6610432E3,2.981011E4,1.0700379E4,1.112697E4,2.1010996E3,7.86333E3,-1.516366E1,-3.8885247E3,-9.763978E3,-5.6879106E3,2.8639416E4,-6.469E3,-9.33087E3,3.432172E4,-1.2612281E4,-2.2747696E2,-7.4015146E3,4.5604734E4,7.293558E4,2.0507682E4,3.7691273E4,1.5051319E4,1.3103171E3,-4.1468145E3,-6.313168E2,-3.699537E3,1.90052E4,-9.02659E3,-5.994484E2,2.2162486E4,6.5853604E3,-3.60391E2,-7.294565E3,2.3295261E3,1.271005E3,1.1069374E3,3.891992E2,4.875815E2,1.1509088E3,-1.17048706E2,3.7162753E2,1.1424954E1,7.765994E2,-1.1192704E2,1.8890808E2,-2.660432E2,2.4011822E1,-5.866818E2,-4.0102695E2,-1.3028766E1,-3.605521E2,1.7282695E3,7.0151605E2,-4.849227E2,1.6556229E2,-4.967399E2,-3.427715E2,1.4189137E3,4.2624316E3,-6.1364136E2,-7.5220197E2,1.8592769E2,-2.0815367E2,-5.0976294E2,-1.0462404E2,2.8881208E3,1.3616185E3,3.9895115E3,2.8353862E3,1.6988226E3,7.954993E2,1.7203281E3,2.691803E3,9.849687E2,7.07186E2,1.6765569E2,-8.500097E1,-1.473118E2,-2.572773E2,4.150204E1,-6.5450574E2,2.5021764E2,1.1571553E3,-2.4630167E2,-4.6601144E2,7.7487396E2,1.5979896E3,5.0910385E2,1.4565373E2,6.556044E1,-4.1807037E2,-4.2120337E2,-2.9616516E2],"categories":[],"categories_nodes":[],"categories_segments":[],"categories_sizes":[],"default_left":[0,0,0,0,0,0,0,0,0,0,0,0,0,0,0,0,0,0,0,0,0,0,0,0,0,0,0,0,0,0,0,0,0,0,0,0,0,0,0,0,0,0,0,0,0,0,0,0,0,0,0,0,0,0,0,0,0,0,0,0,0,0,0,0,0,0,0,0,0,0,0,0,0,0,0,0,0,0,0,0,0,0,0,0,0,0,0,0,0,0,0,0,0,0,0,0,0,0,0,0,0,0,0,0,0,0,0,0,0,0,0,0,0,0,0,0,0,0,0,0,0,0,0],"id":9,"left_children":[1,3,5,7,9,11,13,15,17,19,21,23,25,27,29,31,33,35,37,39,41,43,45,47,49,51,53,55,57,59,61,63,65,67,69,71,73,75,77,79,81,83,85,87,89,91,93,95,97,99,101,103,105,107,-1,109,111,113,-1,115,117,119,121,-1,-1,-1,-1,-1,-1,-1,-1,-1,-1,-1,-1,-1,-1,-1,-1,-1,-1,-1,-1,-1,-1,-1,-1,-1,-1,-1,-1,-1,-1,-1,-1,-1,-1,-1,-1,-1,-1,-1,-1,-1,-1,-1,-1,-1,-1,-1,-1,-1,-1,-1,-1,-1,-1,-1,-1,-1,-1,-1,-1],"loss_changes":[9.803769E12,2.6187423E12,6.19495E12,1.01978564E12,8.715423E11,7.570339E12,7.413555E11,4.6995263E11,2.7463808E11,1.1123593E12,3.4646618E12,1.2794305E12,1.1076427E11,2.692271E11,5.4722422E11,4.4372053E11,4.0762343E11,9.946458E10,4.4159795E10,8.957324E12,9.494751E10,9.035776E11,3.8201596E11,8.4398205E11,2.7349667E11,8.651711E10,2.2244393E10,6.577125E11,6.509953E9,1.1029512E11,1.7814448E10,1.3225925E11,1.2211824E11,1.6256179E11,2.3821482E11,1.1799999E11,6.5970725E10,1.3667193E10,1.0512761E10,7.7575854E11,7.1536266E11,5.2317245E11,5.7874055E10,1.0368385E12,1.081344E8,3.177434E11,1.727544E11,1.5208798E12,1.4466154E11,1.3297877E11,8.3847545E10,1.8369004E9,1.9776135E10,2.3879598E9,0E0,2.9170247E11,9.063812E10,2.621653E9,0E0,1.7794807E11,7.2001884E9,1.4975822E10,7.839867E8,0E0,0E0,0E0,0E0,0E0,0E0,0E0,0E0,0E0,0E0,0E0,0E0,0E0,0E0,0E0,0E0,0E0,0E0,0E0,0E0,0E0,0E0,0E0,0E0,0E0,0E0,0E0,0E0,0E0,0E0,0E0,0E0,0E0,0E0,0E0,0E0,0E0,0E0,0E0,0E0,0E0,0E0,0E0,0E0,0E0,0E0,0E0,0E0,0E0,0E0,0E0,0E0,0E0,0E0,0E0,0E0,0E0,0E0,0E0,0E0],"parents":[2147483647,0,0,1,1,2,2,3,3,4,4,5,5,6,6,7,7,8,8,9,9,10,10,11,11,12,12,13,13,14,14,15,15,16,16,17,17,18,18,19,19,20,20,21,21,22,22,23,23,24,24,25,25,26,26,27,27,28,28,29,29,30,30,31,31,32,32,33,33,34,34,35,35,36,36,37,37,38,38,39,39,40,40,41,41,42,42,43,43,44,44,45,45,46,46,47,47,48,48,49,49,50,50,51,51,52,52,53,53,55,55,56,56,57,57,59,59,60,60,61,61,62,62],"right_children":[2,4,6,8,10,12,14,16,18,20,22,24,26,28,30,32,34,36,38,40,42,44,46,48,50,52,54,56,58,60,62,64,66,68,70,72,74,76,78,80,82,84,86,88,90,92,94,96,98,100,102,104,106,108,-1,110,112,114,-1,116,118,120,122,-1,-1,-1,-1,-1,-1,-1,-1,-1,-1,-1,-1,-1,-1,-1,-1,-1,-1,-1,-1,-1,-1,-1,-1,-1,-1,-1,-1,-1,-1,-1,-1,-1,-1,-1,-1,-1,-1,-1,-1,-1,-1,-1,-1,-1,-1,-1,-1,-1,-1,-1,-1,-1,-1,-1,-1,-1,-1,-1,-1],"split_conditions":[9E1,1.1E1,1E0,2.9E1,7.2E1,9.6E1,2E0,1.3152791E2,2E0,4.1E1,7.4E1,3.2E1,9.8E1,9.6E1,9.6E1,1.1E1,1E0,3E0,5E0,3.8E1,4.7E1,2E0,8.3E1,9.5E1,3.7E1,5E0,9.9E1,9.5E1,9.8E1,4.4E1,9.8E1,3E0,3E0,4.7E1,1.7E1,2E0,3.7E1,4E0,8E0,1.7E1,3.3E1,4.6E1,6.5E1,4.7E1,4.7E1,1E0,8.7E1,9.3E1,2.1281616E2,3.3E1,9.5E1,6.054E0,3.2E1,2.1E1,-6.313168E2,9.3E1,1E1,5.435E0,-5.994484E2,3.9E1,9.3E1,4.4E1,8.471E0,2.3295261E3,1.271005E3,1.1069374E3,3.891992E2,4.875815E2,1.1509088E3,-1.17048706E2,3.7162753E2,1.1424954E1,7.765994E2,-1.1192704E2,1.8890808E2,-2.660432E2,2.4011822E1,-5.866818E2,-4.0102695E2,-1.3028766E1,-3.605521E2,1.7282695E3,7.0151605E2,-4.849227E2,1.6556229E2,-4.967399E2,-3.427715E2,1.4189137E3,4.2624316E3,-6.1364136E2,-7.5220197E2,1.8592769E2,-2.0815367E2,-5.0976294E2,-1.0462404E2,2.8881208E3,1.3616185E3,3.9895115E3,2.8353862E3,1.6988226E3,7.954993E2,1.7203281E3,2.691803E3,9.849687E2,7.07186E2,1.6765569E2,-8.500097E1,-1.473118E2,-2.572773E2,4.150204E1,-6.5450574E2,2.5021764E2,1.1571553E3,-2.4630167E2,-4.6601144E2,7.7487396E2,1.5979896E3,5.0910385E2,1.4565373E2,6.556044E1,-4.1807037E2,-4.2120337E2,-2.9616516E2],"split_indices":[1,1,6,0,1,1,6,10,6,1,1,0,1,1,1,0,6,1,1,1,1,6,1,1,0,0,1,1,1,0,1,1,1,4,0,1,0,1,1,1,0,1,1,4,4,6,1,1,10,0,1,11,0,0,0,1,0,11,0,0,1,0,11,0,0,0,0,0,0,0,0,0,0,0,0,0,0,0,0,0,0,0,0,0,0,0,0,0,0,0,0,0,0,0,0,0,0,0,0,0,0,0,0,0,0,0,0,0,0,0,0,0,0,0,0,0,0,0,0,0,0,0,0],"split_type":[0,0,0,0,0,0,0,0,0,0,0,0,0,0,0,0,0,0,0,0,0,0,0,0,0,0,0,0,0,0,0,0,0,0,0,0,0,0,0,0,0,0,0,0,0,0,0,0,0,0,0,0,0,0,0,0,0,0,0,0,0,0,0,0,0,0,0,0,0,0,0,0,0,0,0,0,0,0,0,0,0,0,0,0,0,0,0,0,0,0,0,0,0,0,0,0,0,0,0,0,0,0,0,0,0,0,0,0,0,0,0,0,0,0,0,0,0,0,0,0,0,0,0],"sum_hessian":[2.68918E5,2.34074E5,3.4844E4,4.0616E4,1.93458E5,1.8089E4,1.6755E4,2.55E4,1.5116E4,1.57452E5,3.6006E4,1.1969E4,6.12E3,1.1803E4,4.952E3,5.485E3,2.0015E4,9.833E3,5.283E3,1.02112E5,5.534E4,3.901E3,3.2105E4,8.178E3,3.791E3,3.746E3,2.374E3,8.422E3,3.381E3,3.282E3,1.67E3,1.818E3,3.667E3,9.959E3,1.0056E4,2.014E3,7.819E3,2.182E3,3.101E3,9.3842E4,8.27E3,1.6561E4,3.8779E4,3.436E3,4.65E2,2.0457E4,1.1648E4,6.818E3,1.36E3,2.159E3,1.632E3,5.33E2,3.213E3,2.009E3,3.65E2,6.856E3,1.566E3,2.233E3,1.148E3,2.735E3,5.47E2,1.117E3,5.53E2,3.74E2,1.444E3,7.43E2,2.924E3,8.929E3,1.03E3,5.486E3,4.57E3,1.01E3,1.004E3,4.93E3,2.889E3,1.643E3,5.39E2,1.452E3,1.649E3,2.0565E4,7.3277E4,5.882E3,2.388E3,1.245E4,4.111E3,3.117E4,7.609E3,3.079E3,3.57E2,4.16E2,4.9E1,1.0215E4,1.0242E4,7.631E3,4.017E3,4.101E3,2.717E3,9.52E2,4.08E2,5.47E2,1.612E3,1.36E3,2.72E2,8.2E1,4.51E2,1.914E3,1.299E3,9.15E2,1.094E3,4.626E3,2.23E3,3.58E2,1.208E3,1.51E2,2.082E3,1.63E3,1.105E3,2.75E2,2.72E2,9.25E2,1.92E2,2.99E2,2.54E2],"tree_param":{"num_deleted":"0","num_feature":"12","num_nodes":"123","size_leaf_vector":"1"}},{"base_weights":[-1.2968688E1,-2.2360212E3,1.4939127E4,3.3709148E3,-4.0446694E3,2.7208275E4,1.652608E3,6.7536416E3,-2.273955E3,-5.1835757E3,4.2071988E2,4.0816695E4,5.570743E1,-2.4558604E3,1.1487781E4,1.6494896E4,5.1268184E3,6.792173E2,-7.702263E3,-3.3231907E3,-8.0714053E3,2.6994947E4,-2.751977E3,4.746466E4,2.6455861E4,3.343714E3,-5.1795806E3,3.3971826E2,-9.559953E3,1.8422037E4,-2.4570303E3,5.1980063E3,2.773792E4,1.1149123E4,3.4824548E3,7.6507017E3,-5.049281E2,-3.743298E3,-9.317979E3,-6.575969E3,2.7188494E4,-6.1897046E3,-8.874608E3,3.2317574E4,-1.1977389E4,-2.5576184E2,-7.0611313E3,4.33119E4,6.854143E4,1.9375541E4,3.579238E4,1.438526E4,1.4626826E3,-3.9798042E3,-5.989486E2,-3.5798623E3,1.7660193E4,-8.606343E3,-5.7008563E2,2.0903973E4,6.30402E3,-1.6142435E2,-7.0017627E3,2.0681798E2,9.978087E2,2.3034949E3,1.1345085E3,1.0595939E3,3.0380307E2,3.5955273E2,-1.0973975E1,1.0841701E1,7.5513824E2,-1.2166787E2,1.3603807E2,-2.55616E2,2.0724678E1,-5.0407016E2,-3.196483E2,-2.3385538E2,-4.3163116E2,1.6413815E3,6.6534576E2,-4.619919E2,1.5201402E2,-4.7171655E2,-3.291618E2,1.3450946E3,3.9589578E3,-5.834543E2,-7.236541E2,1.6871825E2,-1.9431041E2,-4.8434824E2,-1.08640175E2,2.7462073E3,1.2878241E3,3.7641626E3,2.6567808E3,1.6451488E3,7.477966E2,2.190549E3,1.3888367E3,9.261253E2,6.764206E2,1.7235889E2,-7.934155E1,-1.4086218E2,-2.4726607E2,3.0745481E1,-6.240494E2,1.208147E3,4.3538483E2,-2.3676994E2,-4.407417E2,7.4167487E2,1.5055598E3,4.6535562E2,1.6065292E2,6.890054E1,-3.9800833E2,-4.009926E2,-2.8574985E2],"categories":[],"categories_nodes":[],"categories_segments":[],"categories_sizes":[],"default_left":[0,0,0,0,0,0,0,0,0,0,0,0,0,0,0,0,0,0,0,0,0,0,0,0,0,0,0,0,0,0,0,0,0,0,0,0,0,0,0,0,0,0,0,0,0,0,0,0,0,0,0,0,0,0,0,0,0,0,0,0,0,0,0,0,0,0,0,0,0,0,0,0,0,0,0,0,0,0,0,0,0,0,0,0,0,0,0,0,0,0,0,0,0,0,0,0,0,0,0,0,0,0,0,0,0,0,0,0,0,0,0,0,0,0,0,0,0,0,0,0,0,0,0],"id":10,"left_children":[1,3,5,7,9,11,13,15,17,19,21,23,25,27,29,31,33,35,37,39,41,43,45,47,49,51,53,55,57,59,61,63,65,67,69,71,73,75,77,79,81,83,85,87,89,91,93,95,97,99,101,103,105,107,-1,109,111,113,-1,115,117,119,121,-1,-1,-1,-1,-1,-1,-1,-1,-1,-1,-1,-1,-1,-1,-1,-1,-1,-1,-1,-1,-1,-1,-1,-1,-1,-1,-1,-1,-1,-1,-1,-1,-1,-1,-1,-1,-1,-1,-1,-1,-1,-1,-1,-1,-1,-1,-1,-1,-1,-1,-1,-1,-1,-1,-1,-1,-1,-1,-1,-1],"loss_changes":[8.925882E12,2.3707423E12,5.665902E12,1.0887944E12,8.989421E11,6.677112E12,6.743829E11,5.648848E11,3.4252843E11,7.56611E11,3.028808E12,1.1473393E12,1.0390182E11,2.3380731E11,4.7557483E11,6.4773135E11,3.0250867E11,1.1425434E11,4.8104178E10,8.5017813E12,8.33167E10,7.953685E11,3.4520275E11,7.15586E11,2.5098715E11,7.697134E10,1.8923815E10,5.7372285E11,5.691736E9,9.858738E10,1.7050905E10,3.9774626E10,2.349982E11,3.3364043E11,3.295325E11,1.11316664E11,7.360795E10,1.2437588E10,1.1839963E10,3.0224286E11,6.453508E11,4.6491324E11,4.9501962E10,8.524498E11,1.0175283E8,2.678495E11,1.5106664E11,1.3997053E12,1.3437082E11,1.2908711E11,1.0374493E11,1.5366554E9,1.9189211E10,2.2032773E9,0E0,2.5732766E11,9.047199E10,1.7100964E9,0E0,1.5166433E11,5.1579515E9,1.3072607E10,6.498058E8,0E0,0E0,0E0,0E0,0E0,0E0,0E0,0E0,0E0,0E0,0E0,0E0,0E0,0E0,0E0,0E0,0E0,0E0,0E0,0E0,0E0,0E0,0E0,0E0,0E0,0E0,0E0,0E0,0E0,0E0,0E0,0E0,0E0,0E0,0E0,0E0,0E0,0E0,0E0,0E0,0E0,0E0,0E0,0E0,0E0,0E0,0E0,0E0,0E0,0E0,0E0,0E0,0E0,0E0,0E0,0E0,0E0,0E0,0E0,0E0],"parents":[2147483647,0,0,1,1,2,2,3,3,4,4,5,5,6,6,7,7,8,8,9,9,10,10,11,11,12,12,13,13,14,14,15,15,16,16,17,17,18,18,19,19,20,20,21,21,22,22,23,23,24,24,25,25,26,26,27,27,28,28,29,29,30,30,31,31,32,32,33,33,34,34,35,35,36,36,37,37,38,38,39,39,40,40,41,41,42,42,43,43,44,44,45,45,46,46,47,47,48,48,49,49,50,50,51,51,52,52,53,53,55,55,56,56,57,57,59,59,60,60,61,61,62,62],"right_children":[2,4,6,8,10,12,14,16,18,20,22,24,26,28,30,32,34,36,38,40,42,44,46,48,50,52,54,56,58,60,62,64,66,68,70,72,74,76,78,80,82,84,86,88,90,92,94,96,98,100,102,104,106,108,-1,110,112,114,-1,116,118,120,122,-1,-1,-1,-1,-1,-1,-1,-1,-1,-1,-1,-1,-1,-1,-1,-1,-1,-1,-1,-1,-1,-1,-1,-1,-1,-1,-1,-1,-1,-1,-1,-1,-1,-1,-1,-1,-1,-1,-1,-1,-1,-1,-1,-1,-1,-1,-1,-1,-1,-1,-1,-1,-1,-1,-1,-1,-1,-1,-1,-1],"split_conditions":[9E1,1.6E1,1E0,2.9E1,7.2E1,9.6E1,2E0,3E0,2E0,4.1E1,7.4E1,3.2E1,9.8E1,9.6E1,9.6E1,2E0,1.3152791E2,3E0,5E0,3.8E1,4.7E1,2E0,8.3E1,9.5E1,3.7E1,5E0,9.9E1,9.5E1,9.8E1,4.4E1,9.8E1,4.9E1,1.3152791E2,1.1E1,1E0,2E0,3.7E1,4E0,1.3E1,2.7E1,3.3E1,4.6E1,6.5E1,4.7E1,4.7E1,1E0,8.7E1,9.3E1,2.1281616E2,3.3E1,9.3E1,6.054E0,3.2E1,2.1E1,-5.989486E2,9.3E1,1.8940007E2,5.326E0,-5.7008563E2,3.9E1,9.3E1,4.4E1,8.471E0,2.0681798E2,9.978087E2,2.3034949E3,1.1345085E3,1.0595939E3,3.0380307E2,3.5955273E2,-1.0973975E1,1.0841701E1,7.5513824E2,-1.2166787E2,1.3603807E2,-2.55616E2,2.0724678E1,-5.0407016E2,-3.196483E2,-2.3385538E2,-4.3163116E2,1.6413815E3,6.6534576E2,-4.619919E2,1.5201402E2,-4.7171655E2,-3.291618E2,1.3450946E3,3.9589578E3,-5.834543E2,-7.236541E2,1.6871825E2,-1.9431041E2,-4.8434824E2,-1.08640175E2,2.7462073E3,1.2878241E3,3.7641626E3,2.6567808E3,1.6451488E3,7.477966E2,2.190549E3,1.3888367E3,9.261253E2,6.764206E2,1.7235889E2,-7.934155E1,-1.4086218E2,-2.4726607E2,3.0745481E1,-6.240494E2,1.208147E3,4.3538483E2,-2.3676994E2,-4.407417E2,7.4167487E2,1.5055598E3,4.6535562E2,1.6065292E2,6.890054E1,-3.9800833E2,-4.009926E2,-2.8574985E2],"split_indices":[1,1,6,0,1,1,6,1,6,1,1,0,1,1,1,1,10,1,1,1,1,6,1,1,0,0,1,1,1,0,1,4,10,0,6,1,0,1,1,1,0,1,1,4,4,6,1,1,10,0,1,11,0,0,0,1,10,11,0,0,1,0,11,0,0,0,0,0,0,0,0,0,0,0,0,0,0,0,0,0,0,0,0,0,0,0,0,0,0,0,0,0,0,0,0,0,0,0,0,0,0,0,0,0,0,0,0,0,0,0,0,0,0,0,0,0,0,0,0,0,0,0,0],"split_type":[0,0,0,0,0,0,0,0,0,0,0,0,0,0,0,0,0,0,0,0,0,0,0,0,0,0,0,0,0,0,0,0,0,0,0,0,0,0,0,0,0,0,0,0,0,0,0,0,0,0,0,0,0,0,0,0,0,0,0,0,0,0,0,0,0,0,0,0,0,0,0,0,0,0,0,0,0,0,0,0,0,0,0,0,0,0,0,0,0,0,0,0,0,0,0,0,0,0,0,0,0,0,0,0,0,0,0,0,0,0,0,0,0,0,0,0,0,0,0,0,0,0,0],"sum_hessian":[2.68531E5,2.33775E5,3.4756E4,5.7017E4,1.76758E5,1.8069E4,1.6687E4,3.5652E4,2.1365E4,1.40837E5,3.5921E4,1.2036E4,6.033E3,1.1771E4,4.916E3,5.1E3,3.0552E4,1.3838E4,7.527E3,8.5658E4,5.5179E4,3.83E3,3.2091E4,8.225E3,3.811E3,3.706E3,2.327E3,8.448E3,3.323E3,3.283E3,1.633E3,2.545E3,2.555E3,6.551E3,2.4001E4,2.008E3,1.183E4,2.183E3,5.344E3,7.7407E4,8.251E3,1.6511E4,3.8668E4,3.37E3,4.6E2,2.0321E4,1.177E4,6.875E3,1.35E3,2.17E3,1.641E3,5.38E2,3.168E3,1.98E3,3.47E2,6.89E3,1.558E3,2.195E3,1.128E3,2.724E3,5.59E2,1.086E3,5.47E2,2.376E3,1.69E2,5.49E2,2.006E3,2.197E3,4.354E3,1.1989E4,1.2012E4,1.006E3,1.002E3,7.404E3,4.426E3,1.642E3,5.41E2,4.235E3,1.109E3,4.025E4,3.7157E4,5.866E3,2.385E3,1.241E4,4.101E3,3.1073E4,7.595E3,3.023E3,3.47E2,4.17E2,4.3E1,1.0161E4,1.016E4,7.656E3,4.114E3,4.136E3,2.739E3,9.35E2,4.15E2,5.32E2,1.638E3,8.17E2,8.24E2,8.7E1,4.51E2,1.919E3,1.249E3,9.01E2,1.079E3,4.684E3,2.206E3,9.01E2,6.57E2,1.14E2,2.081E3,1.644E3,1.08E3,2.82E2,2.77E2,9.08E2,1.78E2,3.01E2,2.46E2],"tree_param":{"num_deleted":"0","num_feature":"12","num_nodes":"123","size_leaf_vector":"1"}},{"base_weights":[1.1376804E1,-2.080047E3,1.4033176E4,4.60419E3,-3.4872798E3,1.9932006E3,2.7491783E4,-4.598388E3,8.628699E3,-7.3625757E3,-2.1996099E3,5.754168E3,-6.628225E3,4.139455E4,3.8577646E2,-6.7375093E3,5.286382E2,1.7166445E4,6.485419E3,-9.044708E3,-5.8750444E3,-3.3841262E3,3.3376953E3,1.6429348E3,1.7676809E4,-8.403164E3,-2.4416296E3,2.5268465E4,4.6776145E4,3.9449587E3,-5.0431045E3,-3.0919329E3,-7.7088125E3,-1.6515276E2,6.1860576E3,5.617529E3,2.8456494E4,1.8779495E3,1.11096045E4,-7.617751E3,-1.1161621E4,2.8421709E4,-7.636586E3,-1.3112322E3,-7.1251035E3,3.5416348E4,-6.754515E2,-1.680857E3,1.6529234E4,2.0007098E4,6.1123384E3,-4.1316885E3,-9.083654E3,-2.823838E2,-6.6710786E3,5.217699E4,1.8482193E4,4.2595207E4,6.745526E4,1.3841408E4,2.0939343E3,-3.7694277E3,-5.7041174E2,-3.999721E2,-9.290713E1,-2.4674368E2,-4.225218E2,-6.5655655E1,1.2841579E2,4.0091788E2,8.316391E1,2.2406265E2,1.0329244E3,1.697877E3,1.0414144E3,3.3191888E2,-6.274232E2,8.560794E2,2.5318213E2,-2.4129285E2,-4.2660245E2,-4.2076505E2,-6.009018E2,4.312513E3,1.1906775E3,-5.476997E1,-3.998895E2,-1.9598616E2,1.5811771E3,-2.459794E2,-4.0206186E2,1.4851984E3,4.156043E3,1.1351698E2,-2.8297943E2,5.9535004E2,-1.7301439E2,3.4760062E2,1.0513668E3,7.066671E2,1.4390443E3,4.5707138E2,1.4973367E2,-7.452024E1,-2.7040768E2,-4.0875055E2,-5.405647E2,6.2784443E1,-3.785524E2,-3.7955396E2,-2.739877E2,1.866347E3,2.9443728E3,7.795758E2,1.6661631E3,2.7207976E3,1.2242078E3,3.7903748E3,2.878486E3,5.6798535E2,7.482215E2,-4.438115E1,2.0255566E2,-1.3339513E2,-2.4294397E2],"categories":[],"categories_nodes":[],"categories_segments":[],"categories_sizes":[],"default_left":[0,0,0,0,0,0,0,0,0,0,0,0,0,0,0,0,0,0,0,0,0,0,0,0,0,0,0,0,0,0,0,0,0,0,0,0,0,0,0,0,0,0,0,0,0,0,0,0,0,0,0,0,0,0,0,0,0,0,0,0,0,0,0,0,0,0,0,0,0,0,0,0,0,0,0,0,0,0,0,0,0,0,0,0,0,0,0,0,0,0,0,0,0,0,0,0,0,0,0,0,0,0,0,0,0,0,0,0,0,0,0,0,0,0,0,0,0,0,0,0,0,0,0,0,0],"id":11,"left_children":[1,3,5,7,9,11,13,15,17,19,21,23,25,27,29,31,33,35,37,39,41,43,45,47,49,51,53,55,57,59,61,63,65,67,69,71,73,75,77,79,81,83,85,87,89,91,93,95,97,99,101,103,105,107,109,111,113,115,117,119,121,123,-1,-1,-1,-1,-1,-1,-1,-1,-1,-1,-1,-1,-1,-1,-1,-1,-1,-1,-1,-1,-1,-1,-1,-1,-1,-1,-1,-1,-1,-1,-1,-1,-1,-1,-1,-1,-1,-1,-1,-1,-1,-1,-1,-1,-1,-1,-1,-1,-1,-1,-1,-1,-1,-1,-1,-1,-1,-1,-1,-1,-1,-1,-1],"loss_changes":[7.867217E12,2.1959334E12,5.6422763E12,1.503771E12,9.623246E11,5.960431E11,6.195932E12,1.3550125E11,5.1674612E11,1.2027088E11,9.4947226E11,6.2729735E11,4.1459925E10,9.413549E11,1.07761754E11,3.0832558E10,1.4282888E10,7.3873306E11,4.8110672E11,6.8049175E10,1.5426941E12,9.247085E11,3.2840354E12,4.7100717E11,8.824829E10,1.1339399E10,1.5198088E10,4.9570526E11,7.0001885E11,6.1662626E10,1.784007E10,1.1097414E10,1.4096237E10,1.0179742E10,3.27411E9,4.7774843E10,1.1918429E11,7.770897E11,4.095325E11,3.436413E10,2.121492E10,3.293568E11,5.7361564E10,6.59228E12,8.584731E10,7.692608E11,3.329314E11,1.8823216E11,7.463102E10,1.4010633E11,5.176572E9,1.8135798E9,5.1741327E9,1.2385042E10,5.54113E8,5.1261735E10,9.259411E10,1.4496123E12,1.0636283E11,1.2235162E9,1.6575132E10,2.191663E9,0E0,0E0,0E0,0E0,0E0,0E0,0E0,0E0,0E0,0E0,0E0,0E0,0E0,0E0,0E0,0E0,0E0,0E0,0E0,0E0,0E0,0E0,0E0,0E0,0E0,0E0,0E0,0E0,0E0,0E0,0E0,0E0,0E0,0E0,0E0,0E0,0E0,0E0,0E0,0E0,0E0,0E0,0E0,0E0,0E0,0E0,0E0,0E0,0E0,0E0,0E0,0E0,0E0,0E0,0E0,0E0,0E0,0E0,0E0,0E0,0E0,0E0,0E0],"parents":[2147483647,0,0,1,1,2,2,3,3,4,4,5,5,6,6,7,7,8,8,9,9,10,10,11,11,12,12,13,13,14,14,15,15,16,16,17,17,18,18,19,19,20,20,21,21,22,22,23,23,24,24,25,25,26,26,27,27,28,28,29,29,30,30,31,31,32,32,33,33,34,34,35,35,36,36,37,37,38,38,39,39,40,40,41,41,42,42,43,43,44,44,45,45,46,46,47,47,48,48,49,49,50,50,51,51,52,52,53,53,54,54,55,55,56,56,57,57,58,58,59,59,60,60,61,61],"right_children":[2,4,6,8,10,12,14,16,18,20,22,24,26,28,30,32,34,36,38,40,42,44,46,48,50,52,54,56,58,60,62,64,66,68,70,72,74,76,78,80,82,84,86,88,90,92,94,96,98,100,102,104,106,108,110,112,114,116,118,120,122,124,-1,-1,-1,-1,-1,-1,-1,-1,-1,-1,-1,-1,-1,-1,-1,-1,-1,-1,-1,-1,-1,-1,-1,-1,-1,-1,-1,-1,-1,-1,-1,-1,-1,-1,-1,-1,-1,-1,-1,-1,-1,-1,-1,-1,-1,-1,-1,-1,-1,-1,-1,-1,-1,-1,-1,-1,-1,-1,-1,-1,-1,-1,-1],"split_conditions":[9E1,1.1E1,1.51315E5,1.03681E5,1.03681E5,9.6E1,9.6E1,5.7197E4,3E0,3.7E1,7.2E1,2E0,2E0,1.84109E5,9.8E1,3E0,4.7E1,2E0,7E0,3E1,3.9E1,4.1E1,7.4E1,9.5E1,4.4E1,1E0,9.8E1,2E0,9.5E1,5E0,9.9E1,1E0,6E0,8E0,8E0,4.9E1,2.4E1,6E0,9E0,1.8E1,1.4E1,4E0,4.1E1,3.8E1,4.7E1,4.7E1,8.3E1,1E0,9.3188E4,3.9E1,9.3E1,9.7E1,9.8E1,4.4E1,8.494E0,9.2E1,9.5E1,9.3E1,2.1E1,2E0,5.043E1,2.1E1,-5.7041174E2,-3.999721E2,-9.290713E1,-2.4674368E2,-4.225218E2,-6.5655655E1,1.2841579E2,4.0091788E2,8.316391E1,2.2406265E2,1.0329244E3,1.697877E3,1.0414144E3,3.3191888E2,-6.274232E2,8.560794E2,2.5318213E2,-2.4129285E2,-4.2660245E2,-4.2076505E2,-6.009018E2,4.312513E3,1.1906775E3,-5.476997E1,-3.998895E2,-1.9598616E2,1.5811771E3,-2.459794E2,-4.0206186E2,1.4851984E3,4.156043E3,1.1351698E2,-2.8297943E2,5.9535004E2,-1.7301439E2,3.4760062E2,1.0513668E3,7.066671E2,1.4390443E3,4.5707138E2,1.4973367E2,-7.452024E1,-2.7040768E2,-4.0875055E2,-5.405647E2,6.2784443E1,-3.785524E2,-3.7955396E2,-2.739877E2,1.866347E3,2.9443728E3,7.795758E2,1.6661631E3,2.7207976E3,1.2242078E3,3.7903748E3,2.878486E3,5.6798535E2,7.482215E2,-4.438115E1,2.0255566E2,-1.3339513E2,-2.4294397E2],"split_indices":[1,1,7,7,7,1,1,7,1,1,1,6,6,7,1,1,4,1,1,0,1,1,1,1,0,6,1,0,1,0,1,6,0,1,1,4,0,1,1,1,1,0,1,1,1,4,1,6,7,0,1,1,1,0,11,1,1,1,0,0,8,0,0,0,0,0,0,0,0,0,0,0,0,0,0,0,0,0,0,0,0,0,0,0,0,0,0,0,0,0,0,0,0,0,0,0,0,0,0,0,0,0,0,0,0,0,0,0,0,0,0,0,0,0,0,0,0,0,0,0,0,0,0,0,0],"split_type":[0,0,0,0,0,0,0,0,0,0,0,0,0,0,0,0,0,0,0,0,0,0,0,0,0,0,0,0,0,0,0,0,0,0,0,0,0,0,0,0,0,0,0,0,0,0,0,0,0,0,0,0,0,0,0,0,0,0,0,0,0,0,0,0,0,0,0,0,0,0,0,0,0,0,0,0,0,0,0,0,0,0,0,0,0,0,0,0,0,0,0,0,0,0,0,0,0,0,0,0,0,0,0,0,0,0,0,0,0,0,0,0,0,0,0,0,0,0,0,0,0,0,0,0,0],"sum_hessian":[2.68269E5,2.3345E5,3.4819E4,4.06E4,1.9285E5,1.8379E4,1.644E4,1.2353E4,2.8247E4,4.8096E4,1.44754E5,1.2797E4,5.582E3,1.0866E4,5.574E3,8.716E3,3.637E3,5.666E3,2.2581E4,2.2568E4,2.5528E4,1.19246E5,2.5508E4,9.517E3,3.28E3,3.919E3,1.663E3,2.721E3,8.145E3,3.367E3,2.207E3,1.835E3,6.881E3,3.241E3,3.96E2,2.802E3,2.864E3,1.1312E4,1.1269E4,1.3485E4,9.083E3,1.246E3,2.4282E4,7.6731E4,4.2515E4,2.835E3,2.2673E4,7.781E3,1.736E3,2.729E3,5.51E2,5.4E2,3.379E3,1.102E3,5.61E2,5.46E2,2.175E3,6.779E3,1.366E3,5.29E2,2.838E3,1.841E3,3.66E2,3.67E2,1.468E3,1.454E3,5.427E3,2.283E3,9.58E2,2.81E2,1.15E2,2.607E3,1.95E2,1.661E3,1.203E3,8.506E3,2.806E3,5.649E3,5.62E3,3.329E3,1.0156E4,2.163E3,6.92E3,9E1,1.156E3,1.271E3,2.3011E4,7.1101E4,5.63E3,1.248E4,3.0035E4,2.534E3,3.01E2,1.4251E4,8.422E3,9E2,6.881E3,5.56E2,1.18E3,1.637E3,1.092E3,2.78E2,2.73E2,1.77E2,3.63E2,2.22E3,1.159E3,9.11E2,1.91E2,3.12E2,2.49E2,1.73E2,3.73E2,1.823E3,3.52E2,4.1E3,2.679E3,7.35E2,6.31E2,1.7E2,3.59E2,1.125E3,1.713E3,9.18E2,9.23E2],"tree_param":{"num_deleted":"0","num_feature":"12","num_nodes":"125","size_leaf_vector":"1"}},{"base_weights":[1.5398276E1,-1.9881122E3,1.3404186E4,3.1373662E3,-3.6397493E3,1.941906E3,2.6125057E4,-5.120869E3,6.7872266E3,-4.699241E3,4.9610617E2,5.4862803E3,-6.2794067E3,3.935673E4,2.7078485E2,-6.9836743E3,-6.238532E2,1.640195E4,5.179574E3,-3.0414402E3,-7.276253E3,2.4701158E4,-2.4386494E3,1.6572007E3,1.6622021E4,-7.9822383E3,-2.2421912E3,2.4198027E4,4.445723E4,3.5352666E3,-4.8069053E3,-4.310695E3,-8.084086E3,3.3941921E3,-1.3019513E3,5.58689E3,2.7124648E4,4.1369233E3,1.4099867E4,-5.9732993E3,2.463096E4,-5.822151E3,-8.145716E3,-6.319306E3,3.2260258E4,-1.4549913E2,-6.437586E3,-1.474188E3,1.5674049E4,2.0802795E4,1.24108125E4,-4.013516E3,-8.612708E3,-1.4770245E2,-6.2709473E3,4.9332633E4,1.7768219E4,4.053314E4,6.424851E4,1.4404128E2,5.217802E3,-3.5915225E3,-5.394455E2,-2.7031036E2,-4.8326183E1,-2.6193033E2,-4.420405E2,-6.2840878E1,4.1051633E2,-1.4887085E2,4.2854214E0,2.4037633E2,1.4120259E3,1.0545251E3,1.677766E3,1.4113159E2,5.3424286E2,1.1101565E3,3.001476E2,-2.0852042E2,-3.9652682E2,9.6336127E2,1.886747E3,-4.2472745E2,-9.203976E1,-5.356818E2,-3.5981314E2,-4.4092184E2,5.676183E2,1.3419974E3,3.9001484E3,-1.5321385E2,2.7633853E2,-4.4379507E2,-8.915963E1,5.7905695E2,-1.6066907E2,5.8185955E1,9.178798E2,7.0289685E2,1.7455781E3,2.9419724E2,1.2624071E3,-7.0600334E1,-2.631787E2,-3.8652682E2,-5.1423615E2,-9.451087E1,1.7342906E2,-3.6234378E2,-2.5673065E2,1.7792151E3,2.7884214E3,7.476457E2,1.5889945E3,2.6058633E3,1.1664506E3,4.5702153E3,3.1519126E3,-1.8262637E2,1.6463692E2,2.9509695E2,6.5742555E0,-2.5216142E2,-1.4113762E2],"categories":[],"categories_nodes":[],"categories_segments":[],"categories_sizes":[],"default_left":[0,0,0,0,0,0,0,0,0,0,0,0,0,0,0,0,0,0,0,0,0,0,0,0,0,0,0,0,0,0,0,0,0,0,0,0,0,0,0,0,0,0,0,0,0,0,0,0,0,0,0,0,0,0,0,0,0,0,0,0,0,0,0,0,0,0,0,0,0,0,0,0,0,0,0,0,0,0,0,0,0,0,0,0,0,0,0,0,0,0,0,0,0,0,0,0,0,0,0,0,0,0,0,0,0,0,0,0,0,0,0,0,0,0,0,0,0,0,0,0,0,0,0,0,0],"id":12,"left_children":[1,3,5,7,9,11,13,15,17,19,21,23,25,27,29,31,33,35,37,39,41,43,45,47,49,51,53,55,57,59,61,63,65,67,69,71,73,75,77,79,81,83,85,87,89,91,93,95,97,99,101,103,105,107,109,111,113,115,117,119,121,123,-1,-1,-1,-1,-1,-1,-1,-1,-1,-1,-1,-1,-1,-1,-1,-1,-1,-1,-1,-1,-1,-1,-1,-1,-1,-1,-1,-1,-1,-1,-1,-1,-1,-1,-1,-1,-1,-1,-1,-1,-1,-1,-1,-1,-1,-1,-1,-1,-1,-1,-1,-1,-1,-1,-1,-1,-1,-1,-1,-1,-1,-1,-1],"loss_changes":[7.2118127E12,1.979713E12,5.1024783E12,1.7179164E12,7.75007E11,5.3649356E11,5.674148E12,1.4633655E11,6.108232E11,6.014737E11,2.56232E12,5.484963E11,3.8103663E10,8.466706E11,9.312474E10,3.6281057E10,1.3952641E10,6.5631774E11,3.1488705E11,6.9516966E12,6.961234E10,9.1492136E11,2.9500726E11,4.2028053E11,5.7563283E10,9.707799E9,1.3900519E10,4.456195E11,6.335119E11,1.951005E10,1.5925907E10,1.3201191E10,1.87682E10,1.6580198E10,1.0184942E10,4.9593467E10,1.09237895E11,2.6091556E11,2.3229412E11,2.7333335E11,5.7585435E11,2.1946971E11,8.3971015E10,3.3957556E10,7.745223E11,3.3855613E11,1.33036245E11,1.7778496E11,6.8053074E10,1.5623291E11,1.3748198E11,1.7368218E9,4.8434053E9,6.850034E9,5.6909414E8,4.6794015E10,8.624846E10,1.3640422E12,3.5905864E10,1.3592086E10,7.9517696E9,2.0204196E9,0E0,0E0,0E0,0E0,0E0,0E0,0E0,0E0,0E0,0E0,0E0,0E0,0E0,0E0,0E0,0E0,0E0,0E0,0E0,0E0,0E0,0E0,0E0,0E0,0E0,0E0,0E0,0E0,0E0,0E0,0E0,0E0,0E0,0E0,0E0,0E0,0E0,0E0,0E0,0E0,0E0,0E0,0E0,0E0,0E0,0E0,0E0,0E0,0E0,0E0,0E0,0E0,0E0,0E0,0E0,0E0,0E0,0E0,0E0,0E0,0E0,0E0,0E0],"parents":[2147483647,0,0,1,1,2,2,3,3,4,4,5,5,6,6,7,7,8,8,9,9,10,10,11,11,12,12,13,13,14,14,15,15,16,16,17,17,18,18,19,19,20,20,21,21,22,22,23,23,24,24,25,25,26,26,27,27,28,28,29,29,30,30,31,31,32,32,33,33,34,34,35,35,36,36,37,37,38,38,39,39,40,40,41,41,42,42,43,43,44,44,45,45,46,46,47,47,48,48,49,49,50,50,51,51,52,52,53,53,54,54,55,55,56,56,57,57,58,58,59,59,60,60,61,61],"right_children":[2,4,6,8,10,12,14,16,18,20,22,24,26,28,30,32,34,36,38,40,42,44,46,48,50,52,54,56,58,60,62,64,66,68,70,72,74,76,78,80,82,84,86,88,90,92,94,96,98,100,102,104,106,108,110,112,114,116,118,120,122,124,-1,-1,-1,-1,-1,-1,-1,-1,-1,-1,-1,-1,-1,-1,-1,-1,-1,-1,-1,-1,-1,-1,-1,-1,-1,-1,-1,-1,-1,-1,-1,-1,-1,-1,-1,-1,-1,-1,-1,-1,-1,-1,-1,-1,-1,-1,-1,-1,-1,-1,-1,-1,-1,-1,-1,-1,-1,-1,-1,-1,-1,-1,-1],"split_conditions":[9E1,1.6E1,1.51315E5,1.03681E5,7.2E1,9.6E1,9.6E1,5.7197E4,3E0,4.1E1,7.4E1,2E0,2E0,1.84109E5,9.8E1,5E0,3E0,2E0,4.7E1,3.8E1,5E1,7.0713E4,8.3E1,9.5E1,9.3E1,1E0,9.8E1,1.52513E5,9.5E1,4.788E1,9.9E1,4E0,3.969E4,2E0,2.2E1,2.19622E5,1.84109E5,1.3E1,9E0,2.7E1,2.00898E5,4.6E1,5.5E1,5.7197E4,4.7E1,1.84109E5,8.7E1,1E0,3.991E4,9.2E1,9.5E1,9.7E1,9.8E1,4.1062E4,8.471E0,9.2E1,9.5E1,9.3E1,6.123E0,9.7E1,2.07499E5,2.00898E5,-5.394455E2,-2.7031036E2,-4.8326183E1,-2.6193033E2,-4.420405E2,-6.2840878E1,4.1051633E2,-1.4887085E2,4.2854214E0,2.4037633E2,1.4120259E3,1.0545251E3,1.677766E3,1.4113159E2,5.3424286E2,1.1101565E3,3.001476E2,-2.0852042E2,-3.9652682E2,9.6336127E2,1.886747E3,-4.2472745E2,-9.203976E1,-5.356818E2,-3.5981314E2,-4.4092184E2,5.676183E2,1.3419974E3,3.9001484E3,-1.5321385E2,2.7633853E2,-4.4379507E2,-8.915963E1,5.7905695E2,-1.6066907E2,5.8185955E1,9.178798E2,7.0289685E2,1.7455781E3,2.9419724E2,1.2624071E3,-7.0600334E1,-2.631787E2,-3.8652682E2,-5.1423615E2,-9.451087E1,1.7342906E2,-3.6234378E2,-2.5673065E2,1.7792151E3,2.7884214E3,7.476457E2,1.5889945E3,2.6058633E3,1.1664506E3,4.5702153E3,3.1519126E3,-1.8262637E2,1.6463692E2,2.9509695E2,6.5742555E0,-2.5216142E2,-1.4113762E2],"split_indices":[1,1,7,7,1,1,1,7,1,1,1,6,6,7,1,1,1,1,4,1,1,7,1,1,1,6,1,7,1,8,1,1,7,1,4,7,7,1,1,1,7,1,1,7,4,7,1,6,7,1,1,1,1,7,11,1,1,1,11,1,7,7,0,0,0,0,0,0,0,0,0,0,0,0,0,0,0,0,0,0,0,0,0,0,0,0,0,0,0,0,0,0,0,0,0,0,0,0,0,0,0,0,0,0,0,0,0,0,0,0,0,0,0,0,0,0,0,0,0,0,0,0,0,0,0],"split_type":[0,0,0,0,0,0,0,0,0,0,0,0,0,0,0,0,0,0,0,0,0,0,0,0,0,0,0,0,0,0,0,0,0,0,0,0,0,0,0,0,0,0,0,0,0,0,0,0,0,0,0,0,0,0,0,0,0,0,0,0,0,0,0,0,0,0,0,0,0,0,0,0,0,0,0,0,0,0,0,0,0,0,0,0,0,0,0,0,0,0,0,0,0,0,0,0,0,0,0,0,0,0,0,0,0,0,0,0,0,0,0,0,0,0,0,0,0,0,0,0,0,0,0,0,0],"sum_hessian":[2.68848E5,2.33855E5,3.4993E4,5.6992E4,1.76863E5,1.8408E4,1.6585E4,1.7468E4,3.9524E4,1.40795E5,3.6068E4,1.2863E4,5.545E3,1.097E4,5.615E3,1.2351E4,5.117E3,5.66E3,3.3864E4,8.568E4,5.5115E4,3.899E3,3.2169E4,9.573E3,3.29E3,3.899E3,1.646E3,2.764E3,8.206E3,3.418E3,2.197E3,3.604E3,8.747E3,7.38E2,4.379E3,2.819E3,2.841E3,3.0322E4,3.542E3,7.7473E4,8.207E3,2.0628E4,3.4487E4,7.64E2,3.135E3,2.0446E4,1.1723E4,7.826E3,1.747E3,1.648E3,1.642E3,5.36E2,3.363E3,1.084E3,5.62E2,5.61E2,2.203E3,6.852E3,1.354E3,1.134E3,2.284E3,1.828E3,3.69E2,2.714E3,8.9E2,1.84E3,6.907E3,3.76E2,3.62E2,1.983E3,2.396E3,2.727E3,9.2E1,1.469E3,1.372E3,2.5255E4,5.067E3,1.769E3,1.773E3,4.0329E4,3.7144E4,5.826E3,2.381E3,1.2342E4,8.286E3,9.305E3,2.5182E4,6.7E2,9.4E1,2.805E3,3.3E2,1.35E4,6.946E3,7.692E3,4.031E3,9.19E2,6.907E3,2.73E2,1.474E3,1.117E3,5.31E2,1.09E3,5.52E2,1.75E2,3.61E2,2.207E3,1.156E3,7.32E2,3.52E2,2.98E2,2.64E2,1.82E2,3.79E2,1.837E3,3.66E2,4.093E3,2.759E3,5.3E1,1.301E3,5.14E2,6.2E2,2.013E3,2.71E2,6.3E2,1.198E3],"tree_param":{"num_deleted":"0","num_feature":"12","num_nodes":"125","size_leaf_vector":"1"}},{"base_weights":[-1.5413438E1,-1.911233E3,1.2693753E4,3.2011643E3,-3.4045469E3,2.315214E4,1.3180701E3,6.260628E3,-1.9562301E3,-4.339508E3,3.5693784E2,3.491861E4,-8.285401E1,-2.1466423E3,9.610507E3,1.300753E4,4.4206504E3,3.4089877E2,-6.220184E3,-2.7603877E3,-6.914866E3,2.3133615E4,-2.36806E3,4.0626684E4,2.247018E4,2.660125E3,-4.44005E3,2.560074E2,-8.181153E3,1.552637E4,-2.0956956E3,2.3409076E4,7.782284E3,7.96813E3,8.606532E2,-4.822891E2,1.0042803E4,-1.1284423E3,-7.1757744E3,-5.391777E3,2.3313014E4,-5.2414814E3,-7.6286514E3,2.7945088E4,-1.0568796E4,-2.401744E2,-6.090669E3,3.6859156E4,5.908643E4,1.6422727E4,3.0496018E4,1.2641647E4,9.6960345E2,-3.3568755E3,-5.147324E2,-3.1249995E3,1.5218213E4,-7.343216E3,-9.783834E3,1.7642154E4,4.7548975E3,-1.328513E2,-6.0139043E3,2.0120315E3,1.0160132E3,6.207532E2,1.5634479E2,3.5120184E2,9.493419E2,-1.3661354E2,2.5927014E2,7.0689415E1,-3.020598E2,8.262593E1,6.726056E2,-1.6203064E2,5.0510433E1,-3.9689053E2,1.5811078E1,-1.495825E2,-3.5292E2,1.5175896E3,6.840348E2,-4.028628E2,1.6584671E2,-4.0872018E2,-2.7001627E2,1.233506E3,3.3500571E3,-5.1235944E2,-6.059724E2,1.497766E2,-1.7153032E2,-4.2195932E2,-8.488722E1,2.3373694E3,1.0996576E3,3.9211543E3,2.7165112E3,4.1478012E2,1.02143225E3,1.382338E3,2.2194412E3,8.2969305E2,5.921283E2,1.415319E2,-8.958666E1,-1.20159805E2,-2.0907689E2,4.5999725E1,-5.75062E2,1.0496854E3,3.548634E2,-1.1398476E2,-3.772192E2,-5.0228833E2,-4.6040598E2,6.258947E2,1.2748969E3,3.7703903E2,9.9697876E1,6.244508E1,-3.4867517E2,-3.5096036E2,-2.5132132E2],"categories":[],"categories_nodes":[],"categories_segments":[],"categories_sizes":[],"default_left":[0,0,0,0,0,0,0,0,0,0,0,0,0,0,0,0,0,0,0,0,0,0,0,0,0,0,0,0,0,0,0,0,0,0,0,0,0,0,0,0,0,0,0,0,0,0,0,0,0,0,0,0,0,0,0,0,0,0,0,0,0,0,0,0,0,0,0,0,0,0,0,0,0,0,0,0,0,0,0,0,0,0,0,0,0,0,0,0,0,0,0,0,0,0,0,0,0,0,0,0,0,0,0,0,0,0,0,0,0,0,0,0,0,0,0,0,0,0,0,0,0,0,0,0,0],"id":13,"left_children":[1,3,5,7,9,11,13,15,17,19,21,23,25,27,29,31,33,35,37,39,41,43,45,47,49,51,53,55,57,59,61,63,65,67,69,71,73,75,77,79,81,83,85,87,89,91,93,95,97,99,101,103,105,107,-1,109,111,113,115,117,119,121,123,-1,-1,-1,-1,-1,-1,-1,-1,-1,-1,-1,-1,-1,-1,-1,-1,-1,-1,-1,-1,-1,-1,-1,-1,-1,-1,-1,-1,-1,-1,-1,-1,-1,-1,-1,-1,-1,-1,-1,-1,-1,-1,-1,-1,-1,-1,-1,-1,-1,-1,-1,-1,-1,-1,-1,-1,-1,-1,-1,-1,-1,-1],"loss_changes":[6.4668104E12,1.7830833E12,4.1448547E12,8.3313426E11,6.357013E11,4.962514E12,4.7953546E11,4.113249E11,1.9257488E11,5.8873636E11,2.2336347E12,8.548264E11,7.296489E10,1.7069045E11,3.4066622E11,3.8564345E11,3.288683E11,1.0206262E11,3.3480327E10,6.1576986E12,6.566681E10,6.2402265E11,2.5460779E11,5.7116144E11,1.832726E11,6.3199973E10,1.4904709E10,4.2609246E11,4.3944673E9,7.434076E10,1.2707905E10,1.2217051E11,1.0192319E11,1.3548736E11,2.0201393E11,1.2418068E11,2.8557418E10,4.926395E9,3.309129E10,3.2606283E11,5.571991E11,3.9666644E11,4.683989E10,4.279928E11,5.3837824E7,2.1116304E11,1.2058775E11,1.0073827E12,1.22136035E11,7.024712E10,6.2582424E10,1.4185267E9,1.6480492E10,1.5519539E9,0E0,2.3280108E11,7.259256E10,2.222809E9,3.4136064E7,1.0943778E11,4.1194015E9,1.0433996E10,4.945572E8,0E0,0E0,0E0,0E0,0E0,0E0,0E0,0E0,0E0,0E0,0E0,0E0,0E0,0E0,0E0,0E0,0E0,0E0,0E0,0E0,0E0,0E0,0E0,0E0,0E0,0E0,0E0,0E0,0E0,0E0,0E0,0E0,0E0,0E0,0E0,0E0,0E0,0E0,0E0,0E0,0E0,0E0,0E0,0E0,0E0,0E0,0E0,0E0,0E0,0E0,0E0,0E0,0E0,0E0,0E0,0E0,0E0,0E0,0E0,0E0,0E0,0E0],"parents":[2147483647,0,0,1,1,2,2,3,3,4,4,5,5,6,6,7,7,8,8,9,9,10,10,11,11,12,12,13,13,14,14,15,15,16,16,17,17,18,18,19,19,20,20,21,21,22,22,23,23,24,24,25,25,26,26,27,27,28,28,29,29,30,30,31,31,32,32,33,33,34,34,35,35,36,36,37,37,38,38,39,39,40,40,41,41,42,42,43,43,44,44,45,45,46,46,47,47,48,48,49,49,50,50,51,51,52,52,53,53,55,55,56,56,57,57,58,58,59,59,60,60,61,61,62,62],"right_children":[2,4,6,8,10,12,14,16,18,20,22,24,26,28,30,32,34,36,38,40,42,44,46,48,50,52,54,56,58,60,62,64,66,68,70,72,74,76,78,80,82,84,86,88,90,92,94,96,98,100,102,104,106,108,-1,110,112,114,116,118,120,122,124,-1,-1,-1,-1,-1,-1,-1,-1,-1,-1,-1,-1,-1,-1,-1,-1,-1,-1,-1,-1,-1,-1,-1,-1,-1,-1,-1,-1,-1,-1,-1,-1,-1,-1,-1,-1,-1,-1,-1,-1,-1,-1,-1,-1,-1,-1,-1,-1,-1,-1,-1,-1,-1,-1,-1,-1,-1,-1,-1,-1,-1,-1],"split_conditions":[9E1,1.4E1,1E0,2.9E1,7.2E1,9.6E1,2E0,1.3152791E2,2E0,4.1E1,7.4E1,3.2E1,9.8E1,9.6E1,9.6E1,1.1E1,1E0,1.3E1,3E0,3.8E1,4.7E1,2E0,8.3E1,9.5E1,3.7E1,5E0,9.9E1,9.5E1,9.8E1,4.4E1,9.8E1,3E0,1.4E1,1.3E1,1.7E1,1E1,1.354468E2,2E0,1.3E1,2.4E1,2.7E1,4.6E1,6.5E1,1E0,1.1E1,1E0,8.7E1,9.3E1,5E0,9.2E1,9.5E1,6.054E0,3.2E1,2.1E1,-5.147324E2,9.3E1,1.8940007E2,5.114E0,1.8461342E2,3.9E1,9.3E1,4.4E1,8.395E0,2.0120315E3,1.0160132E3,6.207532E2,1.5634479E2,3.5120184E2,9.493419E2,-1.3661354E2,2.5927014E2,7.0689415E1,-3.020598E2,8.262593E1,6.726056E2,-1.6203064E2,5.0510433E1,-3.9689053E2,1.5811078E1,-1.495825E2,-3.5292E2,1.5175896E3,6.840348E2,-4.028628E2,1.6584671E2,-4.0872018E2,-2.7001627E2,1.233506E3,3.3500571E3,-5.1235944E2,-6.059724E2,1.497766E2,-1.7153032E2,-4.2195932E2,-8.488722E1,2.3373694E3,1.0996576E3,3.9211543E3,2.7165112E3,4.1478012E2,1.02143225E3,1.382338E3,2.2194412E3,8.2969305E2,5.921283E2,1.415319E2,-8.958666E1,-1.20159805E2,-2.0907689E2,4.5999725E1,-5.75062E2,1.0496854E3,3.548634E2,-1.1398476E2,-3.772192E2,-5.0228833E2,-4.6040598E2,6.258947E2,1.2748969E3,3.7703903E2,9.9697876E1,6.244508E1,-3.4867517E2,-3.5096036E2,-2.5132132E2],"split_indices":[1,1,6,0,1,1,6,10,6,1,1,0,1,1,1,0,6,1,1,1,1,6,1,1,0,0,1,1,1,0,1,1,0,1,0,1,10,1,1,1,0,1,1,5,3,6,1,1,0,1,1,11,0,0,0,1,10,11,10,0,1,0,11,0,0,0,0,0,0,0,0,0,0,0,0,0,0,0,0,0,0,0,0,0,0,0,0,0,0,0,0,0,0,0,0,0,0,0,0,0,0,0,0,0,0,0,0,0,0,0,0,0,0,0,0,0,0,0,0,0,0,0,0,0,0],"split_type":[0,0,0,0,0,0,0,0,0,0,0,0,0,0,0,0,0,0,0,0,0,0,0,0,0,0,0,0,0,0,0,0,0,0,0,0,0,0,0,0,0,0,0,0,0,0,0,0,0,0,0,0,0,0,0,0,0,0,0,0,0,0,0,0,0,0,0,0,0,0,0,0,0,0,0,0,0,0,0,0,0,0,0,0,0,0,0,0,0,0,0,0,0,0,0,0,0,0,0,0,0,0,0,0,0,0,0,0,0,0,0,0,0,0,0,0,0,0,0,0,0,0,0,0,0],"sum_hessian":[2.68393E5,2.33555E5,3.4838E4,5.2798E4,1.80757E5,1.815E4,1.6688E4,3.3139E4,1.9659E4,1.44772E5,3.5985E4,1.2048E4,6.102E3,1.1771E4,4.917E3,7.099E3,2.604E4,1.2777E4,6.882E3,8.9746E4,5.5026E4,3.844E3,3.2141E4,8.258E3,3.79E3,3.745E3,2.357E3,8.42E3,3.351E3,3.266E3,1.651E3,2.372E3,4.727E3,1.3042E4,1.2998E4,1.1779E4,9.98E2,1.088E3,5.794E3,8.152E4,8.226E3,1.6457E4,3.8569E4,3.364E3,4.8E2,2.0452E4,1.1689E4,6.862E3,1.396E3,2.164E3,1.626E3,5.41E2,3.204E3,1.991E3,3.66E2,6.869E3,1.551E3,2.206E3,1.145E3,2.729E3,5.37E2,1.101E3,5.5E2,3.65E2,2.007E3,2.368E3,2.359E3,1.2015E4,1.027E3,7.1E3,5.898E3,8.784E3,2.995E3,2.89E2,7.09E2,5.47E2,5.41E2,5.259E3,5.35E2,3.341E4,4.811E4,4.751E3,3.475E3,1.2383E4,4.074E3,3.0978E4,7.591E3,3.106E3,2.58E2,4.07E2,7.3E1,1.0154E4,1.0298E4,7.616E3,4.073E3,4.119E3,2.743E3,2.71E2,1.125E3,7.16E2,1.448E3,1.353E3,2.73E2,8.6E1,4.55E2,1.914E3,1.29E3,9.26E2,1.065E3,4.633E3,2.236E3,9.05E2,6.46E2,8.5E1,2.121E3,7.7E2,3.75E2,1.654E3,1.075E3,2.66E2,2.71E2,9.17E2,1.84E2,2.68E2,2.82E2],"tree_param":{"num_deleted":"0","num_feature":"12","num_nodes":"125","size_leaf_vector":"1"}},{"base_weights":[6.470806E0,-1.8083385E3,1.2165841E4,3.9284106E3,-3.01661E3,1.781111E3,2.3704338E4,-4.0128027E3,7.3836E3,-7.11627E3,-1.984163E3,5.012256E3,-5.6344126E3,3.5530777E4,2.7406366E2,-5.884256E3,4.2125574E2,1.4871363E4,5.5228267E3,-8.671764E3,-5.782369E3,-2.96529E3,2.6277202E3,9.8551385E2,1.4363901E4,-7.1955684E3,-1.9550615E3,2.138626E4,4.030856E4,3.2712224E3,-4.344259E3,-2.6305776E3,-6.749715E3,3.6139312E3,-6.2739197E2,4.8283237E3,2.496712E4,1.1877861E3,9.903151E3,-7.2420317E3,-1.0072454E4,2.411981E4,-7.454765E3,-1.2090553E3,-6.128045E3,2.9533852E4,-7.134503E2,-1.8350665E3,1.3636186E4,1.7652695E4,6.003785E3,-3.4992256E3,-7.7685586E3,-1.1610374E2,-5.655961E3,